<?xml version="1.0"?>
<opencv_storage>
<opencv_ml_svm>
  <format>3</format>
  <svmType>C_SVC</svmType>
  <kernel>
    <type>RBF</type>
    <gamma>3.3750000000000002e-02</gamma></kernel>
  <C>1.2500000000000000e+01</C>
  <term_criteria><iterations>20000</iterations></term_criteria>
  <var_count>352</var_count>
  <class_count>2</class_count>
  <class_labels type_id="opencv-matrix">
    <rows>2</rows>
    <cols>1</cols>
    <dt>i</dt>
    <data>
      0 1</data></class_labels>
  <sv_total>820</sv_total>
  <support_vectors>
    <_>
      0. 0. 8.33333358e-02 6.11111104e-01 1. 1. 8.61111104e-01
      7.77777791e-01 1. 1. 1. 9.16666687e-01 7.22222209e-01
      7.22222209e-01 6.11111104e-01 6.66666687e-01 7.22222209e-01
      7.22222209e-01 6.66666687e-01 5.55555582e-01 6.11111104e-01
      5.83333313e-01 6.66666687e-01 7.22222209e-01 9.44444478e-01
      9.72222209e-01 9.72222209e-01 9.72222209e-01 9.72222209e-01
      9.72222209e-01 8.61111104e-01 7.50000000e-01 6.38888896e-01
      6.38888896e-01 6.11111104e-01 6.94444478e-01 5.55555582e-01
      5.00000000e-01 5.83333313e-01 6.11111104e-01 6.38888896e-01
      7.50000000e-01 8.05555582e-01 9.44444478e-01 9.44444478e-01
      9.72222209e-01 9.72222209e-01 9.72222209e-01 9.44444478e-01
      9.16666687e-01 9.44444478e-01 9.72222209e-01 9.72222209e-01
      9.72222209e-01 9.72222209e-01 5.27777791e-01 4.72222239e-01
      4.72222239e-01 8.61111104e-01 8.88888896e-01 8.88888896e-01
      9.16666687e-01 9.16666687e-01 9.16666687e-01 9.16666687e-01
      8.88888896e-01 4.72222239e-01 4.72222239e-01 5.27777791e-01
      9.72222209e-01 9.72222209e-01 9.72222209e-01 9.72222209e-01
      9.44444478e-01 6.11111104e-01 5.83333313e-01 5.55555582e-01
      7.50000000e-01 7.77777791e-01 8.33333313e-01 8.05555582e-01
      8.33333313e-01 8.05555582e-01 7.77777791e-01 7.50000000e-01
      6.38888896e-01 7.22222209e-01 8.61111104e-01 9.72222209e-01
      9.72222209e-01 9.72222209e-01 9.44444478e-01 9.44444478e-01
      9.44444478e-01 9.44444478e-01 9.72222209e-01 9.72222209e-01
      4.44444448e-01 4.16666657e-01 4.44444448e-01 9.44444478e-01
      9.44444478e-01 9.44444478e-01 9.44444478e-01 9.44444478e-01
      9.44444478e-01 9.72222209e-01 9.44444478e-01 8.88888896e-01
      7.50000000e-01 6.66666687e-01 6.94444478e-01 6.66666687e-01
      7.50000000e-01 7.77777791e-01 7.22222209e-01 7.50000000e-01
      7.50000000e-01 7.22222209e-01 6.94444478e-01 5.55555582e-01
      5.83333313e-01 6.11111104e-01 7.77777791e-01 8.61111104e-01
      8.61111104e-01 8.88888896e-01 8.88888896e-01 9.16666687e-01
      9.16666687e-01 9.16666687e-01 9.16666687e-01 9.16666687e-01
      7.77777791e-01 3.61111104e-01 3.61111104e-01 9.31818187e-01
      9.31818187e-01 1. 9.92424250e-01 9.84848499e-01 9.31818187e-01
      9.09090936e-01 8.56060624e-01 7.95454562e-01 7.72727311e-01
      8.40909123e-01 8.25757623e-01 7.50000000e-01 7.57575750e-01
      7.42424250e-01 6.59090936e-01 7.50000000e-01 7.50000000e-01
      7.50000000e-01 7.34848499e-01 7.57575750e-01 7.50000000e-01
      7.34848499e-01 7.50000000e-01 7.34848499e-01 7.19696999e-01
      7.34848499e-01 7.72727311e-01 8.56060624e-01 7.87878811e-01
      8.18181872e-01 8.40909123e-01 8.25757623e-01 7.95454562e-01
      7.12121248e-01 6.28787875e-01 1.08695654e-02 1.58862881e-02
      1.50501672e-02 1.58862881e-02 2.00668890e-02 1.58862881e-02
      2.59197317e-02 1.50501672e-02 2.17391308e-02 2.59197317e-02
      2.84280926e-02 1.92307699e-02 2.17391308e-02 2.92642135e-02
      2.42474917e-02 3.17725763e-02 4.18060198e-02 4.76588607e-02
      5.01672253e-02 6.60535097e-02 7.69230798e-02 8.94648805e-02
      8.69565234e-02 1.28762543e-01 1.58026755e-01 2.05685616e-01
      2.95150489e-01 5.59364557e-01 1. 5.12541831e-01 7.85953179e-02
      2.00668890e-02 1.00334445e-02 1.67224072e-02 7.52508361e-03
      1.50501672e-02 1.83946490e-02 1.75585281e-02 1.25418063e-02
      1.67224079e-03 9.19732451e-03 1.17056854e-02 8.36120360e-03
      7.52508361e-03 4.18060180e-03 4.18060180e-03 3.34448158e-03
      8.36120360e-03 6.68896316e-03 8.36120360e-03 2.50836113e-03
      9.19732451e-03 1.67224079e-03 5.85284270e-03 3.34448158e-03
      1.17056854e-02 5.85284270e-03 1.17056854e-02 2.50836113e-03 0.
      1.33779263e-02 0. 5.85284270e-03 5.01672225e-03 2.50836113e-03
      9.19732451e-03 8.36120360e-03 4.18060180e-03 5.85284270e-03
      2.50836113e-03 4.18060180e-03 8.36120395e-04 0. 0. 0.
      5.01672225e-03 8.36120395e-04 0. 0. 8.36120395e-04 3.34448158e-03
      8.36120395e-04 0. 1.67224079e-03 8.36120395e-04 8.36120395e-04
      1.67224079e-03 8.36120395e-04 8.36120395e-04 0. 2.50836113e-03 0.
      0. 8.36120395e-04 8.36120395e-04 2.50836113e-03 8.36120395e-04 0.
      8.36120395e-04 8.36120395e-04 8.36120395e-04 0. 0. 8.36120395e-04
      0. 8.36120395e-04 0. 0. 0. 0. 1.67224079e-03 0. 0. 0. 0. 0. 0. 0.
      0. 0. 4.18060180e-03 0. 0. 0. 0. 0. 8.36120395e-04 0.
      8.36120395e-04 0. 0. 0. 0. 0. 0. 0. 0. 0. 0. 0. 8.36120395e-04 0.
      0. 0. 0. 0. 0. 0. 0. 0. 8.36120395e-04 0. 0. 0. 0. 0. 0. 0. 0. 0.
      0. 0. 0. 0. 0. 0. 0. 0. 0. 0. 0. 0. 0. 8.36120395e-04 0.
      8.36120395e-04 0. 2.50836113e-03 2.50836113e-03 6.68896316e-03</_>
    <_>
      0. 0. 0. 0. 0. 0. 0. 0. 0. 0. 0. 0. 0. 0. 0. 0. 0. 0. 0.
      3.22580636e-02 8.38709652e-01 7.09677398e-01 9.03225780e-01
      9.03225780e-01 9.03225780e-01 5.80645144e-01 6.12903237e-01
      4.51612890e-01 5.48387051e-01 7.09677398e-01 5.48387051e-01
      5.48387051e-01 5.16129017e-01 5.48387051e-01 9.03225780e-01
      9.35483813e-01 9.35483813e-01 9.35483813e-01 8.38709652e-01
      3.22580636e-01 5.16129017e-01 7.41935492e-01 7.09677398e-01
      6.77419305e-01 6.77419305e-01 5.48387051e-01 5.16129017e-01
      5.16129017e-01 6.45161271e-01 7.74193525e-01 8.70967746e-01
      9.35483813e-01 9.03225780e-01 9.35483813e-01 9.35483813e-01
      9.67741907e-01 9.67741907e-01 9.67741907e-01 7.74193525e-01
      5.48387051e-01 8.06451559e-01 8.70967746e-01 8.70967746e-01
      8.38709652e-01 8.70967746e-01 8.70967746e-01 8.38709652e-01
      7.41935492e-01 8.70967746e-01 9.67741907e-01 9.67741907e-01
      9.67741907e-01 9.35483813e-01 9.03225780e-01 8.70967746e-01
      9.03225780e-01 9.03225780e-01 7.74193525e-01 6.12903237e-01
      7.09677398e-01 7.09677398e-01 7.74193525e-01 8.70967746e-01
      9.67741907e-01 9.67741907e-01 1. 1. 1. 1. 1. 9.67741907e-01
      3.87096763e-01 3.54838699e-01 9.35483813e-01 9.67741907e-01
      9.67741907e-01 1. 9.67741907e-01 9.35483813e-01 8.70967746e-01
      7.41935492e-01 6.45161271e-01 6.12903237e-01 5.48387051e-01
      5.48387051e-01 7.09677398e-01 6.77419305e-01 6.45161271e-01
      5.80645144e-01 5.16129017e-01 7.09677398e-01 9.03225780e-01
      9.03225780e-01 9.03225780e-01 6.77419305e-01 4.19354826e-01
      3.87096763e-01 7.41935492e-01 7.09677398e-01 7.41935492e-01
      7.09677398e-01 7.09677398e-01 6.77419305e-01 3.87096763e-01
      4.51612890e-01 8.70967746e-01 8.38709652e-01 8.06451559e-01 0. 0.
      0. 0. 0. 0. 0. 0. 3.61702114e-01 4.14893597e-01 5.21276593e-01
      6.27659559e-01 7.02127635e-01 7.76595712e-01 7.76595712e-01
      9.46808457e-01 9.04255271e-01 9.04255271e-01 9.57446754e-01
      8.93616974e-01 8.51063788e-01 8.82978678e-01 9.25531864e-01
      9.68085051e-01 9.46808457e-01 9.99999940e-01 9.68085051e-01
      8.19148898e-01 8.08510602e-01 9.04255271e-01 8.93616974e-01
      9.68085051e-01 9.89361644e-01 9.36170161e-01 8.08510602e-01
      7.55319118e-01 7.12765932e-01 6.91489339e-01 8.08510602e-01
      6.48936152e-01 4.78723377e-01 3.51063818e-01 2.87234038e-01
      1.38297871e-01 8.85333300e-01 1.33333332e-03 2.66666664e-03
      1.33333332e-03 2.66666664e-03 6.66666683e-03 7.99999945e-03
      3.99999972e-03 2.13333331e-02 1.20000001e-02 1.86666660e-02
      3.59999985e-02 1.99999996e-02 4.53333333e-02 5.06666675e-02
      7.59999976e-02 7.73333311e-02 7.73333311e-02 7.86666647e-02
      1.48000002e-01 1.81333333e-01 1.58666670e-01 1.50666669e-01
      1.92000002e-01 2.42666662e-01 2.70666659e-01 3.74666661e-01
      4.25333321e-01 9.57333326e-01 1. 3.95999998e-01 3.19999978e-02
      3.99999972e-03 4.66666669e-02 9.33333300e-03 8.53333324e-02
      6.66666683e-03 9.33333300e-03 3.99999972e-03 7.99999945e-03
      5.33333328e-03 7.99999945e-03 5.33333328e-03 7.99999945e-03
      3.99999972e-03 9.33333300e-03 7.99999945e-03 2.66666664e-03
      6.66666683e-03 6.66666683e-03 1.33333337e-02 1.33333332e-03
      2.66666664e-03 3.99999972e-03 5.33333328e-03 0. 0. 0. 0. 0.
      5.33333328e-03 0. 0. 0. 1.33333332e-03 0. 0. 0. 0. 0. 0. 0. 0. 0.
      1.33333332e-03 1.33333332e-03 0. 0. 2.66666664e-03 1.33333332e-03
      1.33333332e-03 0. 1.33333332e-03 2.66666664e-03 0. 1.33333332e-03
      0. 0. 1.33333332e-03 0. 6.66666683e-03 0. 0. 0. 1.33333332e-03
      2.66666664e-03 0. 0. 1.33333332e-03 2.66666664e-03 0.
      2.66666664e-03 0. 2.66666664e-03 0. 3.99999972e-03 0.
      1.33333332e-03 0. 2.66666664e-03 3.99999972e-03 3.99999972e-03 0.
      3.99999972e-03 1.33333332e-03 2.66666664e-03 3.99999972e-03
      2.66666664e-03 0. 0. 1.14666663e-01 0. 1.33333332e-03 0.
      2.66666664e-03 3.99999972e-03 0. 0. 0. 0. 2.66666664e-03
      2.66666664e-03 5.33333328e-03 1.33333332e-03 1.33333332e-03
      6.66666683e-03 0. 0. 2.66666664e-03 0. 9.33333300e-03
      9.33333300e-03 0. 2.66666664e-03 0. 1.33333332e-03 0. 0. 0. 0.
      6.66666683e-03 0. 0. 0. 0. 0. 0. 0. 0. 0. 3.99999972e-03 0.
      1.33333332e-03 0. 0. 3.46666649e-02 0. 0. 0. 1.33333332e-03
      3.99999972e-03 0. 0. 2.66666664e-03 1.33333332e-03 0.
      2.66666664e-03 1.06666666e-02 0. 0.</_>
    <_>
      7.82608688e-01 7.82608688e-01 7.82608688e-01 7.82608688e-01
      5.65217376e-01 4.78260875e-01 4.78260875e-01 4.78260875e-01
      5.21739125e-01 5.65217376e-01 4.34782624e-01 4.34782624e-01
      6.95652187e-01 9.56521749e-01 9.13043499e-01 9.13043499e-01 1.
      7.39130437e-01 9.13043499e-01 1. 1. 9.13043499e-01 6.95652187e-01
      4.78260875e-01 4.34782624e-01 4.34782624e-01 3.91304344e-01
      4.78260875e-01 6.95652187e-01 8.26086998e-01 9.13043499e-01
      8.26086998e-01 7.39130437e-01 7.39130437e-01 8.69565248e-01
      8.69565248e-01 7.39130437e-01 5.21739125e-01 3.91304344e-01
      3.47826093e-01 3.47826093e-01 3.91304344e-01 3.91304344e-01
      3.91304344e-01 3.47826093e-01 3.47826093e-01 3.47826093e-01
      3.47826093e-01 4.78260875e-01 5.21739125e-01 5.65217376e-01
      6.52173936e-01 6.08695686e-01 6.08695686e-01 6.52173936e-01
      6.95652187e-01 7.39130437e-01 8.69565248e-01 7.82608688e-01
      5.21739125e-01 3.04347843e-01 3.04347843e-01 3.04347843e-01
      5.21739125e-01 8.26086998e-01 9.13043499e-01 4.78260875e-01
      4.34782624e-01 4.34782624e-01 3.91304344e-01 3.47826093e-01
      3.91304344e-01 4.78260875e-01 8.26086998e-01 7.82608688e-01
      4.34782624e-01 1.73913047e-01 1.73913047e-01 1.73913047e-01
      4.34782624e-01 5.65217376e-01 6.08695686e-01 5.21739125e-01
      5.21739125e-01 5.21739125e-01 5.21739125e-01 4.78260875e-01
      5.21739125e-01 5.21739125e-01 3.91304344e-01 1.30434781e-01
      8.69565234e-02 1.30434781e-01 1.30434781e-01 2.60869563e-01
      5.21739125e-01 5.65217376e-01 6.08695686e-01 6.08695686e-01
      4.34782624e-01 4.78260875e-01 6.52173936e-01 5.21739125e-01
      5.21739125e-01 3.47826093e-01 1.30434781e-01 8.69565234e-02
      8.69565234e-02 1.30434781e-01 1.73913047e-01 1.73913047e-01
      1.73913047e-01 1.30434781e-01 6.08695686e-01 7.82608688e-01
      7.39130437e-01 1.30434781e-01 1.30434781e-01 1.30434781e-01
      1.73913047e-01 1.30434781e-01 0. 4.34782617e-02 4.34782617e-02
      4.34782617e-02 8.69565234e-02 4.34782617e-02 8.69565234e-02
      8.69565234e-02 4.34782617e-02 4.34782617e-02 4.34782617e-02
      4.34782617e-02 2.17391312e-01 2.17391312e-01 2.17391312e-01 1.
      8.86363685e-01 7.95454562e-01 7.12121248e-01 6.06060624e-01
      5.60606062e-01 5.83333373e-01 4.77272749e-01 3.86363655e-01
      2.87878811e-01 2.65151531e-01 2.57575750e-01 2.72727281e-01
      2.34848499e-01 2.12121218e-01 2.50000000e-01 3.03030312e-01
      3.40909094e-01 3.10606062e-01 2.19696969e-01 2.57575750e-01
      2.80303031e-01 2.57575750e-01 2.87878811e-01 2.27272734e-01
      2.04545468e-01 2.12121218e-01 1.43939406e-01 1.28787875e-01
      7.57575780e-02 3.03030312e-02 1.51515156e-02 0. 0. 0. 0.
      5.54016605e-03 0. 0. 0. 0. 0. 0. 0. 0. 0. 0. 0. 0. 0. 0. 0. 0. 0.
      0. 0. 0. 0. 0. 0. 0. 0. 0. 0. 0. 0. 4.15512454e-03 0. 0. 0. 0. 0.
      0. 0. 0. 0. 0. 0. 0. 0. 0. 1.38504151e-03 0. 0. 0. 0.
      2.77008303e-03 5.54016605e-03 2.77008303e-03 8.31024908e-03 0.
      1.38504151e-03 6.92520756e-03 1.10803321e-02 0. 0. 9.69529059e-03
      0. 0. 9.69529059e-03 0. 0. 1.66204982e-02 0. 0. 6.92520756e-03
      1.66204982e-02 0. 5.54016605e-03 2.35457048e-02 5.54016605e-02
      6.23268671e-02 4.15512454e-03 1.93905812e-02 3.87811624e-02
      9.69529059e-03 7.56232679e-01 2.63157897e-02 6.92520756e-03
      6.78670332e-02 5.40166199e-02 1.48199439e-01 5.54016605e-02
      9.69529077e-02 3.18559557e-02 0. 1.34349033e-01 0. 3.73961218e-02
      6.09418266e-02 3.18559557e-02 2.54847646e-01 7.61772841e-02
      1.80055387e-02 1.06648199e-01 1.14958443e-01 5.54016605e-02
      1.63434893e-01 1.45429358e-01 6.06648207e-01 3.57340723e-01
      4.33517992e-01 4.61218834e-01 1. 3.24099720e-01 4.00276989e-01
      2.18836561e-01 1.28808856e-01 7.34072030e-02 5.54016605e-03 0. 0.
      0. 0. 0. 0. 0. 0. 0. 0. 0. 0. 0. 0. 0. 0. 0. 0. 0. 0. 0. 0. 0. 0.
      0. 0. 0. 0. 0. 0. 0. 0. 0. 0. 0. 0. 0. 0. 0. 0. 0. 0. 0. 0. 0. 0.
      0. 0. 0. 0. 0. 0. 0. 0. 0. 0. 0. 0. 0. 0. 0. 0. 0. 0. 0. 0.</_>
    <_>
      3.00000012e-01 3.00000012e-01 3.66666675e-01 6.66666687e-01
      9.66666698e-01 9.66666698e-01 1. 1. 3.66666675e-01 3.00000012e-01
      3.00000012e-01 3.00000012e-01 3.00000012e-01 5.33333361e-01
      6.33333385e-01 5.66666722e-01 4.66666698e-01 4.00000036e-01
      4.00000036e-01 4.33333367e-01 4.66666698e-01 4.66666698e-01
      4.33333367e-01 6.66666687e-01 9.66666698e-01 1. 1. 1.
      9.33333397e-01 9.33333397e-01 9.33333397e-01 9.33333397e-01 1. 1.
      1. 8.66666734e-01 6.00000024e-01 2.33333349e-01 2.33333349e-01
      2.33333349e-01 5.00000000e-01 7.66666710e-01 7.66666710e-01
      7.66666710e-01 7.33333349e-01 7.33333349e-01 7.33333349e-01
      7.66666710e-01 7.66666710e-01 8.33333373e-01 8.66666734e-01
      9.66666698e-01 9.66666698e-01 9.33333397e-01 9.33333397e-01
      8.66666734e-01 7.00000048e-01 6.66666687e-01 6.66666687e-01
      7.00000048e-01 6.66666687e-01 6.33333385e-01 6.00000024e-01
      6.00000024e-01 6.00000024e-01 3.66666675e-01 4.00000036e-01
      5.00000000e-01 5.33333361e-01 6.33333385e-01 9.66666698e-01
      9.66666698e-01 9.66666698e-01 8.66666734e-01 4.33333367e-01
      4.00000036e-01 3.66666675e-01 6.66666687e-01 7.00000048e-01
      7.33333349e-01 7.33333349e-01 7.66666710e-01 8.00000072e-01
      7.00000048e-01 3.00000012e-01 3.33333343e-01 4.00000036e-01
      4.66666698e-01 5.00000000e-01 9.66666698e-01 9.00000036e-01
      8.00000072e-01 6.33333385e-01 6.33333385e-01 6.33333385e-01
      6.66666687e-01 6.66666687e-01 5.66666722e-01 5.00000000e-01
      4.33333367e-01 4.00000036e-01 3.00000012e-01 5.00000000e-01
      6.33333385e-01 7.00000048e-01 8.00000072e-01 8.66666734e-01
      9.33333397e-01 9.66666698e-01 9.66666698e-01 9.66666698e-01
      5.66666722e-01 4.00000036e-01 3.66666675e-01 3.00000012e-01
      5.00000000e-01 6.00000024e-01 6.33333385e-01 6.33333385e-01
      5.66666722e-01 4.33333367e-01 2.66666681e-01 3.33333343e-01
      4.66666698e-01 6.33333385e-01 8.33333373e-01 8.00000072e-01
      5.00000000e-01 0. 3.33333351e-02 0. 0. 0. 0. 0. 0. 3.43434334e-01
      5.05050480e-01 6.36363626e-01 6.96969688e-01 8.68686855e-01
      8.08080792e-01 8.18181813e-01 7.57575750e-01 6.46464646e-01
      6.56565666e-01 6.96969688e-01 7.87878811e-01 7.47474730e-01
      8.28282833e-01 8.68686855e-01 8.68686855e-01 8.08080792e-01
      7.87878811e-01 6.56565666e-01 6.86868668e-01 7.87878811e-01
      8.18181813e-01 8.28282833e-01 7.97979772e-01 8.88888896e-01
      9.09090936e-01 9.79797959e-01 1. 8.38383853e-01 6.46464646e-01
      6.46464646e-01 5.85858583e-01 4.74747479e-01 2.82828271e-01
      1.41414136e-01 5.05050495e-02 8.98587983e-03 2.18228512e-02
      4.62130941e-02 6.16174601e-02 5.77663705e-02 8.34403113e-02
      9.11424905e-02 1.57894745e-01 1.42490372e-01 2.27214381e-01
      2.97817737e-01 4.08215672e-01 6.04621351e-01 8.79332483e-01 1.
      9.89730477e-01 7.88190007e-01 3.11938405e-01 5.51989749e-02
      1.54043650e-02 5.13478834e-03 3.85109126e-03 2.56739417e-03 0. 0.
      0. 0. 0. 0. 0. 0. 0. 0. 0. 0. 0. 0. 0. 0. 0. 0. 0. 0. 0. 0. 0. 0.
      0. 0. 0. 0. 0. 0. 0. 0. 0. 0. 0. 0. 0. 0. 0. 0. 0. 0. 0. 0. 0. 0.
      0. 0. 0. 0. 0. 0. 0. 0. 0. 0. 0. 0. 0. 0. 0. 0. 0. 0. 0. 0. 0. 0.
      0. 0. 0. 0. 0. 0. 0. 0. 0. 0. 0. 0. 0. 0. 0. 0. 0. 0. 0. 0. 0. 0.
      0. 0. 0. 0. 0. 0. 0. 0. 0. 0. 0. 0. 0. 0. 0. 0. 0. 0. 0. 0. 0. 0.
      0. 0. 0. 0. 0. 0. 0. 0. 0. 0. 0. 0. 0. 0. 0. 0. 0. 0. 0. 0. 0. 0.
      0. 0. 0. 0. 0. 0. 0. 0. 0. 0. 0. 0. 0. 0. 0. 0. 0. 0.
      1.28369709e-03 1.28369709e-03 5.13478834e-03 1.28369709e-03
      1.54043650e-02</_>
    <_>
      0. 0. 0. 0. 0. 0. 0. 2.77777780e-02 2.77777780e-02 0. 0. 0. 0. 0.
      0. 0. 0. 0. 0. 0. 0. 0. 0. 1.11111112e-01 1. 1. 1. 1. 1. 1. 1. 1.
      7.77777791e-01 6.38888896e-01 5.00000000e-01 5.55555582e-01
      6.11111104e-01 7.77777791e-01 7.50000000e-01 5.00000000e-01
      4.72222239e-01 4.16666657e-01 6.38888896e-01 8.88888896e-01 1. 1.
      1. 1. 9.44444478e-01 2.50000000e-01 2.50000000e-01 2.50000000e-01
      7.77777791e-01 7.77777791e-01 8.05555582e-01 8.05555582e-01
      7.77777791e-01 7.77777791e-01 8.05555582e-01 8.05555582e-01
      8.61111104e-01 7.77777791e-01 8.61111104e-01 9.44444478e-01 1. 1.
      1. 1. 1. 1. 1. 1. 1. 1. 3.05555552e-01 2.77777791e-01
      2.77777791e-01 8.05555582e-01 8.33333313e-01 8.05555582e-01
      8.05555582e-01 8.05555582e-01 8.05555582e-01 8.05555582e-01
      8.05555582e-01 8.05555582e-01 8.61111104e-01 9.16666687e-01 1. 1.
      1. 1. 9.72222209e-01 8.05555582e-01 7.22222209e-01 7.77777791e-01
      7.77777791e-01 7.50000000e-01 7.77777791e-01 7.77777791e-01
      7.50000000e-01 6.66666687e-01 6.66666687e-01 5.27777791e-01
      6.38888896e-01 7.50000000e-01 1. 1. 1. 1. 9.72222209e-01
      6.11111104e-01 5.27777791e-01 5.00000000e-01 7.50000000e-01
      7.77777791e-01 8.05555582e-01 8.05555582e-01 8.33333313e-01
      7.77777791e-01 7.77777791e-01 5.55555582e-01 5.83333313e-01
      6.94444478e-01 1. 1. 1. 1. 1. 1. 1. 1. 9.44444478e-01 1.
      2.77777791e-01 2.50000000e-01 9.64912295e-01 9.64912295e-01
      9.38596487e-01 8.42105269e-01 7.19298244e-01 7.36842096e-01
      6.40350878e-01 6.84210539e-01 7.54385948e-01 7.80701756e-01
      7.98245609e-01 7.80701756e-01 8.07017565e-01 7.89473712e-01
      7.63157904e-01 6.92982435e-01 6.40350878e-01 5.87719321e-01
      7.10526347e-01 7.89473712e-01 7.71929860e-01 7.71929860e-01
      7.89473712e-01 8.07017565e-01 7.71929860e-01 7.71929860e-01
      7.63157904e-01 7.54385948e-01 7.45614052e-01 7.19298244e-01
      7.01754391e-01 8.33333313e-01 8.42105269e-01 9.73684192e-01
      9.82456148e-01 1. 2.38379021e-03 1.19189511e-03 0. 2.38379021e-03
      3.57568543e-03 1.19189511e-03 2.38379021e-03 0. 1.19189511e-03
      9.53516085e-03 1.90703217e-02 3.09892725e-02 1.19189508e-02
      4.17163298e-02 2.97973771e-02 1.31108463e-02 3.09892725e-02
      4.17163298e-02 1.06078662e-01 7.62812868e-02 7.86650777e-02
      9.65435058e-02 1.14421934e-01 1.01311088e-01 1.54946357e-01
      2.00238377e-01 2.46722281e-01 3.45649570e-01 5.12514889e-01
      8.04529190e-01 1. 5.73301554e-01 1.41835511e-01 2.86054835e-02
      1.90703217e-02 1.66865308e-02 2.38379021e-03 4.76758042e-03
      2.38379021e-03 2.38379021e-03 0. 0. 2.38379021e-03 0.
      1.19189511e-03 0. 0. 0. 0. 1.19189511e-03 1.19189511e-03 0. 0. 0.
      0. 0. 1.19189511e-03 0. 0. 0. 0. 0. 0. 0. 0. 0. 0. 0. 0. 0. 0. 0.
      0. 0. 0. 1.19189511e-03 0. 0. 0. 1.19189511e-03 0. 0. 0. 0. 0. 0.
      0. 0. 0. 0. 0. 0. 0. 0. 0. 1.19189511e-03 0. 0. 0. 0.
      1.19189511e-03 0. 0. 0. 2.38379021e-03 5.24433851e-02
      2.19308704e-01 1.19189511e-03 2.50297971e-02 4.76758042e-03
      4.29082252e-02 1.00119188e-01 4.76758042e-03 3.42073888e-01
      8.34326539e-03 2.14541126e-02 5.48271760e-02 2.38379021e-03 0.
      1.19189511e-03 5.95947541e-03 0. 7.15137087e-03 1.07270563e-02
      9.53516085e-03 2.02622171e-02 1.19189511e-03 4.76758042e-03
      2.38379021e-03 2.38379021e-03 0. 0. 0. 0. 0. 0. 0. 0. 0. 0.
      1.19189511e-03 0. 0. 0. 0. 1.19189511e-03 0. 0. 0. 0.
      1.19189511e-03 0. 0. 0. 0. 0. 0. 0. 0. 0. 0. 0. 0. 0. 0. 0. 0. 0.
      0. 0. 0. 0. 0. 0. 0. 0. 0. 0. 0. 0.</_>
    <_>
      4.58333343e-01 3.75000000e-01 3.75000000e-01 3.75000000e-01
      3.75000000e-01 3.75000000e-01 3.75000000e-01 3.33333343e-01
      3.33333343e-01 3.33333343e-01 3.33333343e-01 5.41666687e-01
      8.33333373e-01 8.75000000e-01 9.58333373e-01 8.33333373e-01
      8.75000000e-01 8.75000000e-01 9.16666687e-01 9.16666687e-01
      5.83333373e-01 3.75000000e-01 2.91666687e-01 2.91666687e-01
      2.91666687e-01 2.91666687e-01 8.75000000e-01 1. 1. 5.83333373e-01
      5.00000000e-01 4.58333343e-01 4.58333343e-01 4.16666687e-01
      4.16666687e-01 2.50000000e-01 2.50000000e-01 2.50000000e-01
      2.50000000e-01 2.50000000e-01 2.50000000e-01 2.50000000e-01
      2.50000000e-01 2.91666687e-01 2.08333343e-01 2.08333343e-01
      2.08333343e-01 2.08333343e-01 2.08333343e-01 8.33333373e-01
      8.33333373e-01 5.41666687e-01 2.91666687e-01 2.50000000e-01
      2.91666687e-01 2.91666687e-01 2.91666687e-01 2.91666687e-01
      3.33333343e-01 8.33333373e-01 7.91666687e-01 2.91666687e-01
      1.66666672e-01 1.66666672e-01 3.33333343e-01 7.91666687e-01
      8.33333373e-01 4.16666687e-01 3.75000000e-01 3.33333343e-01
      3.33333343e-01 3.33333343e-01 3.33333343e-01 2.91666687e-01
      6.66666687e-01 7.50000000e-01 6.66666687e-01 1.66666672e-01
      8.33333358e-02 8.33333358e-02 8.33333358e-02 2.50000000e-01
      3.33333343e-01 4.16666687e-01 4.16666687e-01 4.58333343e-01
      5.00000000e-01 5.00000000e-01 4.58333343e-01 6.66666687e-01
      5.41666687e-01 4.58333343e-01 4.16666679e-02 4.16666679e-02
      4.16666679e-02 4.16666679e-02 1.66666672e-01 4.16666679e-02
      8.33333358e-02 1.25000000e-01 1.25000000e-01 1.25000000e-01
      1.66666672e-01 2.08333343e-01 2.91666687e-01 5.41666687e-01
      5.83333373e-01 5.41666687e-01 8.33333358e-02 4.16666679e-02
      4.16666679e-02 4.16666679e-02 2.08333343e-01 3.33333343e-01
      2.91666687e-01 3.33333343e-01 4.58333343e-01 5.00000000e-01
      5.41666687e-01 5.83333373e-01 6.25000000e-01 6.66666687e-01
      5.83333373e-01 3.75000000e-01 2.08333343e-01 2.08333343e-01
      2.50000000e-01 3.33333343e-01 3.33333343e-01 3.33333343e-01
      3.75000000e-01 4.58333343e-01 4.58333343e-01 5.00000000e-01
      4.58333343e-01 4.16666687e-01 1. 8.73873889e-01 7.47747779e-01
      7.02702701e-01 5.67567587e-01 4.86486495e-01 4.50450450e-01
      2.61261255e-01 2.16216221e-01 1.98198199e-01 2.43243247e-01
      2.52252251e-01 2.88288295e-01 3.60360384e-01 3.51351351e-01
      3.69369388e-01 2.79279292e-01 3.06306303e-01 2.88288295e-01
      3.96396399e-01 4.23423439e-01 4.05405402e-01 3.60360384e-01
      2.43243247e-01 1.35135144e-01 1.53153151e-01 1.08108111e-01
      1.08108111e-01 1.44144148e-01 8.10810849e-02 9.00900960e-02
      1.35135144e-01 1.35135144e-01 1.89189196e-01 1.98198199e-01
      2.16216221e-01 1. 0. 0. 0. 0. 0. 0. 0. 0. 0. 0. 0. 0. 0. 0. 0. 0.
      0. 0. 0. 0. 0. 0. 0. 0. 0. 0. 0. 0. 0. 8.70511401e-04 0. 0.
      8.70511401e-04 8.70511401e-04 1.30576710e-03 6.52883551e-04 0.
      6.52883551e-04 0. 0. 0. 0. 0. 0. 0. 0. 0. 0. 0. 0. 0. 0. 0. 0. 0.
      0. 0. 0. 0. 1.08813925e-03 0. 0. 0. 0. 0. 0. 0. 0. 0.
      4.35255701e-04 0. 0. 0. 0. 5.65832388e-03 2.17627850e-04 0.
      2.17627850e-03 8.92274175e-03 3.91730107e-03 2.17627850e-04 0.
      4.35255701e-04 0. 0. 0. 1.30576710e-03 0. 0. 6.52883551e-04 0. 0.
      0. 0. 0. 0. 0. 1.52339495e-03 0. 0. 5.22306841e-03 1.08813925e-03
      1.56692043e-02 0. 8.70511401e-04 2.17627850e-03 2.17627850e-04
      2.17627850e-04 0. 2.17627850e-03 0. 0. 0. 0. 0. 0. 0. 0. 0.
      6.09357981e-03 0. 0. 0. 0. 0. 0. 0. 0. 0. 0. 0. 0. 0. 0. 0. 0. 0.
      0. 0. 0. 0. 0. 0. 0. 0. 0. 0. 0. 0. 0. 0. 0. 0. 0. 0. 0. 0. 0. 0.
      0. 0. 0. 0. 0. 0. 0. 0. 0. 0. 0. 0. 0. 0. 0. 0. 0. 0. 0. 0.</_>
    <_>
      0. 0. 0. 0. 0. 0. 0. 0. 0. 0. 0. 0. 2.00000003e-01 5.00000007e-02
      0. 0. 1.00000001e-01 0. 1.50000006e-01 5.00000007e-02 0. 0. 0. 0.
      0. 0. 2.00000003e-01 5.00000000e-01 5.50000012e-01 6.00000024e-01
      4.00000006e-01 3.00000012e-01 3.49999994e-01 3.00000012e-01
      3.49999994e-01 1.50000006e-01 0. 0. 0. 0. 0. 0. 0. 0. 0. 0. 0.
      4.50000018e-01 5.50000012e-01 1.50000006e-01 1.00000001e-01
      1.00000001e-01 1.00000001e-01 2.00000003e-01 2.00000003e-01
      2.00000003e-01 3.00000012e-01 8.00000012e-01 1.00000001e-01
      5.00000007e-02 5.00000007e-02 5.00000007e-02 5.00000007e-02
      1.00000001e-01 1.50000006e-01 2.00000003e-01 2.00000003e-01
      1.00000001e-01 1.50000006e-01 1.50000006e-01 2.50000000e-01
      3.00000012e-01 9.49999988e-01 9.49999988e-01 1.50000006e-01
      1.50000006e-01 1.50000006e-01 1.50000006e-01 4.00000006e-01
      5.00000000e-01 5.00000000e-01 4.00000006e-01 4.00000006e-01
      4.50000018e-01 4.00000006e-01 5.00000000e-01 5.00000000e-01
      5.50000012e-01 6.00000024e-01 4.50000018e-01 1.50000006e-01
      1.50000006e-01 1.50000006e-01 2.00000003e-01 4.50000018e-01
      7.50000000e-01 6.50000036e-01 5.50000012e-01 4.00000006e-01
      3.49999994e-01 4.50000018e-01 4.50000018e-01 5.50000012e-01
      6.50000036e-01 6.00000024e-01 4.50000018e-01 2.00000003e-01
      2.00000003e-01 2.00000003e-01 2.00000003e-01 5.00000000e-01
      6.99999988e-01 9.49999988e-01 6.99999988e-01 5.00000000e-01
      5.00000000e-01 5.50000012e-01 6.50000036e-01 6.99999988e-01 1.
      7.50000000e-01 5.50000012e-01 3.00000012e-01 2.00000003e-01
      2.00000003e-01 2.50000000e-01 2.50000000e-01 2.50000000e-01
      2.00000003e-01 2.50000000e-01 2.50000000e-01 3.00000012e-01
      3.00000012e-01 3.00000012e-01 3.00000012e-01 3.00000012e-01 1.
      9.24050629e-01 8.22784841e-01 5.44303834e-01 1.26582280e-01
      6.32911399e-02 1.26582282e-02 3.79746854e-02 1.26582280e-01
      1.64556965e-01 1.77215189e-01 2.78481007e-01 3.54430377e-01
      3.41772169e-01 2.65822798e-01 2.91139245e-01 3.29113930e-01
      3.54430377e-01 4.55696225e-01 3.41772169e-01 3.54430377e-01
      2.53164560e-01 2.53164560e-01 2.78481007e-01 3.29113930e-01
      3.03797483e-01 2.15189874e-01 2.02531651e-01 1.13924056e-01
      2.53164563e-02 0. 0. 0. 0. 0. 0. 2.99539179e-01 0. 0. 0. 0. 0. 0.
      0. 0. 0. 0. 0. 0. 0. 0. 0. 0. 0. 0. 0. 0. 0. 0. 0. 0. 0. 0. 0. 0.
      0. 0. 0. 0. 0. 0. 0. 0. 0. 0. 0. 3.07219662e-03 0. 1.53609831e-03
      0. 0. 2.45775729e-02 0. 0. 6.14439324e-03 0. 7.52688199e-02
      6.14439324e-03 0. 1.53609831e-03 0. 6.14439324e-03 0. 0. 0. 0.
      5.68356365e-02 0. 0. 3.07219662e-03 0. 3.53302620e-02
      3.07219662e-03 0. 0. 0. 4.45468500e-02 1.53609831e-03
      1.22887865e-02 3.07219662e-03 2.76497696e-02 9.06298012e-02
      4.60829493e-03 7.68049154e-03 1.84331797e-02 1.68970823e-02
      1.49001539e-01 7.68049154e-03 0. 1.61290318e-01 1.22887865e-02
      3.22580636e-02 3.07219662e-03 1.84331797e-02 6.14439324e-03 0.
      1.39784947e-01 0. 9.21658985e-03 3.53302620e-02 1.99692771e-02
      3.99385542e-02 1.53609831e-02 9.21658985e-03 7.06605241e-02
      1.16743475e-01 1.21351764e-01 2.74961591e-01 2.15053767e-01
      6.08294904e-01 3.91705066e-01 5.26881695e-01 1. 4.33179736e-01
      2.68817216e-01 2.73425490e-01 4.63901699e-01 3.14900160e-01
      2.22734258e-01 2.58064508e-01 1.88940093e-01 1.72043011e-01
      7.68049136e-02 3.22580636e-02 2.76497696e-02 7.68049154e-03
      4.45468500e-02 0. 1.53609831e-03 0. 0. 0. 0. 0. 0. 0. 0. 0. 0. 0.
      0. 0. 0. 0. 0. 0. 0. 0. 0. 0. 0. 0. 0. 0. 0. 0. 0. 0. 0. 0. 0. 0.
      0. 0. 0. 0. 0. 0. 0. 0. 0. 0. 0. 0. 0. 0. 0. 0. 0. 0. 0. 0. 0. 0.
      0. 0.</_>
    <_>
      0. 0. 0. 0. 0. 0. 0. 0. 0. 0. 6.20689631e-01 3.79310340e-01
      3.44827585e-02 1.03448272e-01 1.37931034e-01 3.79310340e-01
      4.48275864e-01 4.48275864e-01 4.48275864e-01 3.44827592e-01
      4.82758611e-01 4.13793087e-01 5.51724136e-01 4.82758611e-01
      4.13793087e-01 1.72413796e-01 1.03448272e-01 6.89655170e-02
      6.89655170e-02 6.89655170e-02 1.37931034e-01 3.44827592e-01
      5.17241359e-01 5.51724136e-01 3.79310340e-01 3.79310340e-01
      4.13793087e-01 4.13793087e-01 4.13793087e-01 4.13793087e-01
      3.10344815e-01 1.37931034e-01 6.89655170e-02 6.89655170e-02
      6.89655170e-02 1.37931034e-01 1.37931034e-01 1.72413796e-01
      1.37931034e-01 6.89655170e-02 6.89655170e-02 1.03448272e-01
      5.17241359e-01 6.55172408e-01 4.82758611e-01 3.79310340e-01
      2.41379306e-01 2.41379306e-01 3.10344815e-01 4.48275864e-01
      5.51724136e-01 5.86206913e-01 4.48275864e-01 1.03448272e-01
      6.89655170e-02 6.89655170e-02 1.37931034e-01 2.06896544e-01
      2.75862068e-01 3.10344815e-01 3.10344815e-01 3.79310340e-01
      4.13793087e-01 4.82758611e-01 4.48275864e-01 4.48275864e-01
      6.20689631e-01 4.48275864e-01 2.75862068e-01 6.89655170e-02
      6.89655170e-02 6.89655170e-02 1.37931034e-01 1.72413796e-01
      1.72413796e-01 1.72413796e-01 1.72413796e-01 4.13793087e-01
      5.86206913e-01 6.89655185e-01 5.17241359e-01 4.13793087e-01
      2.75862068e-01 1.03448272e-01 1.03448272e-01 1.03448272e-01
      1.03448272e-01 1.37931034e-01 3.10344815e-01 3.44827592e-01
      4.82758611e-01 5.17241359e-01 4.48275864e-01 4.48275864e-01
      5.17241359e-01 4.82758611e-01 6.20689631e-01 6.20689631e-01
      4.82758611e-01 2.41379306e-01 1.37931034e-01 1.72413796e-01
      3.79310340e-01 8.62068951e-01 8.62068951e-01 7.24137902e-01
      2.06896544e-01 2.06896544e-01 2.41379306e-01 2.41379306e-01
      2.41379306e-01 2.41379306e-01 2.41379306e-01 3.10344815e-01
      3.10344815e-01 2.06896544e-01 3.79310340e-01 1. 5.86206913e-01
      1.37931034e-01 1.72413796e-01 1.72413796e-01 1.72413796e-01
      1.72413796e-01 1.72413796e-01 1.72413796e-01 3.77358496e-01
      3.96226406e-01 3.96226406e-01 4.52830195e-01 6.60377383e-01
      5.47169805e-01 5.84905684e-01 5.28301895e-01 4.15094346e-01
      4.90566045e-01 6.79245293e-01 7.16981173e-01 5.47169805e-01
      7.54716992e-01 6.22641504e-01 7.16981173e-01 7.54716992e-01
      7.35849082e-01 6.98113203e-01 8.49056602e-01 9.62264180e-01
      7.35849082e-01 7.35849082e-01 7.16981173e-01 7.35849082e-01
      7.16981173e-01 4.90566045e-01 4.52830195e-01 3.39622647e-01
      2.45283023e-01 3.39622647e-01 4.15094346e-01 6.03773594e-01
      7.54716992e-01 8.30188692e-01 1. 3.40874821e-01 0. 0. 0. 0.
      1.50829565e-03 0. 0. 0. 4.52488707e-03 0. 1.65912528e-02 0.
      1.35746608e-02 0. 1.05580697e-02 0. 1.50829565e-03 1.50829565e-03
      0. 4.97737564e-02 0. 0. 0. 0. 0. 0. 0. 0. 0. 4.37405743e-02 0. 0.
      1.50829565e-03 1.50829563e-02 1.80995483e-02 2.71493215e-02 0.
      1.05580697e-02 0. 1.50829565e-03 0. 0. 0. 0. 3.01659130e-03 0. 0.
      1.05580697e-02 0. 2.56410260e-02 0. 1.80995483e-02 6.03318261e-03
      3.01659130e-03 6.03318261e-03 1.05580697e-02 0. 0. 0.
      2.56410260e-02 0. 1.50829565e-03 0. 1.50829565e-03 1.50829565e-03
      2.26244349e-02 0. 0. 1.50829565e-03 4.52488707e-03 0.
      4.52488707e-03 0. 0. 2.11161394e-02 1.50829565e-03 0.
      3.01659130e-03 0. 3.77073921e-02 0. 0. 1.96078438e-02
      1.50829563e-02 7.54147815e-03 3.01659130e-03 3.01659130e-03 0. 0.
      2.11161394e-02 1.50829565e-03 3.01659130e-03 1.20663652e-02
      3.01659130e-03 7.23981932e-02 1.50829563e-02 2.11161394e-02
      1.80995483e-02 4.67571653e-02 4.97737564e-02 4.52488698e-02
      6.63650110e-02 1.43288091e-01 9.65309218e-02 2.27752641e-01
      1.68929115e-01 2.23227754e-01 3.33333343e-01 4.43438917e-01
      8.11463058e-01 1. 9.12518859e-01 7.63197601e-01 4.43438917e-01
      2.21719459e-01 7.99396709e-02 5.12820520e-02 2.86576170e-02
      2.56410260e-02 1.23680241e-01 1.96078438e-02 1.80995483e-02
      1.50829565e-03 7.54147815e-03 0. 6.03318261e-03 0. 0. 0.
      3.01659130e-03 0. 0. 0. 0. 1.50829565e-03 0. 0. 0. 0. 0. 0. 0. 0.
      0. 0. 0. 0. 0. 0. 1.35746608e-02 0. 0. 0. 0. 0. 1.35746608e-02 0.
      0. 0. 0. 0. 0. 0. 0. 1.50829565e-03 0. 0. 0. 0. 0. 0. 0.
      9.04977415e-03 0. 0. 0. 0. 0. 0.</_>
    <_>
      6.25000000e-01 6.25000000e-01 6.25000000e-01 5.41666687e-01
      5.41666687e-01 5.83333373e-01 5.83333373e-01 5.83333373e-01
      6.25000000e-01 6.25000000e-01 8.33333358e-02 0. 0. 0. 0.
      4.16666679e-02 2.08333343e-01 5.00000000e-01 5.83333373e-01
      7.08333373e-01 6.66666687e-01 5.00000000e-01 5.00000000e-01
      7.08333373e-01 7.08333373e-01 6.25000000e-01 5.00000000e-01
      4.16666687e-01 2.50000000e-01 1.66666672e-01 8.33333358e-02
      8.33333358e-02 8.33333358e-02 8.33333358e-02 4.16666679e-02
      8.33333358e-02 8.33333358e-02 8.33333358e-02 8.33333358e-02
      8.33333358e-02 1.25000000e-01 2.91666687e-01 3.33333343e-01
      3.75000000e-01 5.00000000e-01 5.83333373e-01 5.83333373e-01
      6.25000000e-01 6.66666687e-01 7.50000000e-01 8.75000000e-01
      7.08333373e-01 5.83333373e-01 5.00000000e-01 2.91666687e-01
      1.25000000e-01 1.25000000e-01 1.66666672e-01 1.66666672e-01
      3.33333343e-01 5.00000000e-01 6.66666687e-01 7.50000000e-01
      7.91666687e-01 7.91666687e-01 6.66666687e-01 7.50000000e-01
      7.50000000e-01 5.00000000e-01 4.58333343e-01 4.16666687e-01
      2.08333343e-01 2.08333343e-01 2.08333343e-01 2.08333343e-01
      3.75000000e-01 5.83333373e-01 5.83333373e-01 7.50000000e-01
      7.91666687e-01 7.08333373e-01 6.66666687e-01 6.66666687e-01
      6.25000000e-01 5.41666687e-01 6.25000000e-01 6.66666687e-01
      6.25000000e-01 5.83333373e-01 4.58333343e-01 2.91666687e-01
      2.50000000e-01 2.50000000e-01 2.50000000e-01 3.75000000e-01
      4.16666687e-01 4.16666687e-01 5.83333373e-01 6.66666687e-01
      7.08333373e-01 7.50000000e-01 8.33333373e-01 8.75000000e-01 1.
      7.91666687e-01 6.66666687e-01 4.58333343e-01 2.91666687e-01
      2.50000000e-01 2.08333343e-01 2.50000000e-01 4.58333343e-01
      5.83333373e-01 5.83333373e-01 6.25000000e-01 6.25000000e-01
      6.66666687e-01 5.41666687e-01 5.00000000e-01 5.41666687e-01
      6.25000000e-01 5.41666687e-01 4.58333343e-01 4.16666687e-01
      2.50000000e-01 2.08333343e-01 2.08333343e-01 2.08333343e-01
      2.08333343e-01 2.08333343e-01 2.08333343e-01 2.08333343e-01
      2.50000000e-01 3.33333343e-01 3.75000000e-01 3.75000000e-01 1.
      9.41176534e-01 7.31092453e-01 6.63865566e-01 5.46218514e-01
      2.68907577e-01 1.68067232e-01 2.35294133e-01 2.52100855e-01
      2.77310938e-01 2.94117659e-01 3.19327742e-01 3.94957989e-01
      4.95798349e-01 4.95798349e-01 4.45378184e-01 4.45378184e-01
      4.36974823e-01 4.87394989e-01 4.70588267e-01 4.78991628e-01
      4.95798349e-01 4.36974823e-01 3.52941185e-01 2.77310938e-01
      2.35294133e-01 2.10084051e-01 1.84873953e-01 1.17647067e-01
      5.04201725e-02 0. 0. 0. 0. 0. 0. 7.16723502e-01 0. 0. 0. 0. 0.
      1.02389073e-02 0. 0. 0. 0. 0. 0. 0. 0. 3.41296918e-03 0. 0. 0. 0.
      5.11945365e-03 0. 0. 0. 0. 0. 0. 0. 0. 0. 5.11945365e-03 0. 0. 0.
      0. 0. 0. 0. 0. 0. 0. 0. 0. 0. 0. 3.41296918e-03 0. 0. 0. 0.
      4.26621139e-02 0. 0. 1.70648459e-03 0. 0. 0. 0. 0. 0.
      1.19453920e-02 0. 0. 0. 0. 0. 8.53242259e-03 0. 0. 0.
      1.53583614e-02 0. 0. 3.41296918e-03 0. 4.09556292e-02
      3.41296918e-03 1.02389073e-02 2.90102381e-02 2.90102381e-02
      5.54607511e-01 2.38907840e-02 1.19453920e-02 1.38225257e-01
      5.46075068e-02 2.21842993e-02 2.55972687e-02 1.86006814e-01
      2.73037534e-02 0. 2.54266202e-01 1.70648459e-03 6.65528998e-02
      1.58703074e-01 1.17747433e-01 3.72013628e-01 1.24573372e-01
      1.16040953e-01 1.70648456e-01 2.59385645e-01 3.77133101e-01
      5.58020473e-01 9.99999940e-01 5.46075046e-01 6.19453907e-01
      4.77815688e-01 2.71331042e-01 2.15017065e-01 1.31399319e-01
      9.04436857e-02 2.15017065e-01 9.04436857e-02 4.77815680e-02
      1.87713299e-02 3.41296918e-03 1.70648459e-03 0. 0. 0. 0.
      4.09556292e-02 0. 0. 0. 0. 0. 0. 0. 1.70648459e-03 0.
      3.41296918e-03 0. 0. 0. 0. 5.11945365e-03 0. 0. 0. 0. 0. 0. 0. 0.
      0. 0. 0. 0. 0. 0. 5.11945365e-03 0. 0. 0. 0. 0. 0. 0. 0. 0.
      6.82593836e-03 0. 0. 0. 0. 1.70648459e-03 0. 0. 0. 0. 0. 0. 0. 0.
      0. 0. 0. 0. 0. 0.</_>
    <_>
      4.68750000e-01 5.62500000e-01 6.25000000e-01 6.56250000e-01
      5.93750000e-01 5.31250000e-01 4.06250000e-01 3.75000000e-01
      2.18750000e-01 1.56250000e-01 6.25000000e-02 0. 0. 0. 0. 0. 0. 0.
      0. 0. 0. 6.25000000e-02 9.37500000e-02 1.56250000e-01
      1.56250000e-01 3.43750000e-01 3.75000000e-01 5.31250000e-01
      6.25000000e-01 6.56250000e-01 5.93750000e-01 5.31250000e-01
      4.37500000e-01 4.37500000e-01 5.62500000e-01 5.31250000e-01
      4.68750000e-01 3.43750000e-01 9.37500000e-02 0. 0. 0.
      2.18750000e-01 3.12500000e-01 5.00000000e-01 6.56250000e-01
      6.56250000e-01 6.56250000e-01 5.93750000e-01 4.68750000e-01
      4.06250000e-01 4.06250000e-01 4.37500000e-01 5.00000000e-01
      4.68750000e-01 5.62500000e-01 6.56250000e-01 6.87500000e-01
      6.56250000e-01 2.18750000e-01 0. 0. 9.37500000e-02 4.06250000e-01
      5.00000000e-01 5.00000000e-01 6.25000000e-01 6.56250000e-01
      6.25000000e-01 5.93750000e-01 5.00000000e-01 4.37500000e-01
      4.06250000e-01 3.43750000e-01 3.75000000e-01 3.75000000e-01
      4.68750000e-01 6.25000000e-01 5.62500000e-01 5.31250000e-01
      4.37500000e-01 3.43750000e-01 1.87500000e-01 9.37500000e-02
      9.37500000e-02 9.37500000e-02 9.37500000e-02 6.25000000e-02
      3.12500000e-02 1.25000000e-01 2.81250000e-01 4.68750000e-01
      6.87500000e-01 7.81250000e-01 8.43750000e-01 8.12500000e-01
      4.06250000e-01 6.25000000e-02 6.25000000e-02 6.25000000e-02
      9.37500000e-02 1.25000000e-01 1.25000000e-01 2.81250000e-01
      4.06250000e-01 8.12500000e-01 9.68750000e-01 9.68750000e-01
      9.68750000e-01 9.68750000e-01 9.68750000e-01 6.25000000e-01
      5.93750000e-01 5.31250000e-01 6.25000000e-01 5.31250000e-01
      8.75000000e-01 8.75000000e-01 9.37500000e-01 9.68750000e-01 1. 1.
      7.81250000e-01 6.25000000e-01 4.06250000e-01 3.12500000e-01
      3.75000000e-01 4.68750000e-01 5.31250000e-01 5.62500000e-01
      7.50000000e-01 7.81250000e-01 8.43750000e-01 8.75000000e-01
      9.06250000e-01 9.06250000e-01 9.25531864e-01 9.57446754e-01
      8.72340381e-01 9.68085051e-01 9.99999940e-01 8.61702085e-01
      7.34042525e-01 6.91489339e-01 7.02127635e-01 7.02127635e-01
      7.12765932e-01 7.97872305e-01 7.76595712e-01 8.19148898e-01
      8.51063788e-01 8.61702085e-01 7.55319118e-01 6.06382966e-01
      6.17021263e-01 6.59574449e-01 6.06382966e-01 4.68085080e-01
      5.10638297e-01 6.06382966e-01 6.17021263e-01 4.89361674e-01
      3.51063818e-01 2.97872335e-01 2.44680837e-01 1.59574464e-01
      9.57446769e-02 2.12765951e-02 0. 0. 0. 0. 2.09677413e-01 0. 0. 0.
      0. 0. 0. 0. 0. 0. 0. 0. 0. 0. 0. 0. 0. 0. 0. 0. 2.68817204e-03 0.
      0. 2.68817204e-03 1.07526882e-02 4.03225794e-03 0. 0. 0. 0.
      2.01612897e-02 0. 0. 0. 0. 0. 2.68817204e-03 0. 1.34408602e-03 0.
      1.34408602e-03 0. 0. 0. 0. 5.37634408e-03 0. 0. 0. 0. 0. 0. 0.
      2.68817204e-03 1.34408602e-03 0. 8.06451589e-03 0. 0. 0.
      2.95698922e-02 0. 0. 0. 6.72043022e-03 4.03225794e-03 0. 0.
      1.34408602e-03 4.03225794e-03 8.06451589e-03 2.68817204e-03 0.
      1.34408602e-03 0. 1.74731184e-02 0. 2.68817204e-03 2.68817204e-03
      5.37634408e-03 7.66129047e-02 1.34408602e-03 0. 1.07526882e-02
      8.06451589e-03 4.03225794e-03 5.37634408e-03 1.26344085e-01 0. 0.
      5.51075265e-02 0. 0. 1.45161286e-01 1.34408604e-02 8.60215053e-02
      1.06182799e-01 3.49462368e-02 1.12903222e-01 1.90860212e-01
      9.00537670e-02 3.21236551e-01 2.68817216e-01 3.95161301e-01
      4.09946233e-01 1. 9.95967746e-01 7.80913949e-01 4.63709682e-01
      1.30376339e-01 9.94623676e-02 1.22311831e-01 1.20967738e-02
      1.88172050e-02 2.68817204e-03 4.03225794e-03 1.20967738e-02
      2.01612897e-02 0. 0. 8.46774206e-02 0. 0. 1.34408602e-03
      1.07526882e-02 0. 0. 0. 0. 0. 0. 0. 0. 0. 0. 0. 0. 0. 0. 0. 0. 0.
      0. 0. 0. 0. 0. 0. 0. 0. 0. 0. 0. 0. 0. 0. 0. 0. 0. 0. 0. 0. 0. 0.
      0. 0. 0. 0. 0. 0. 0. 0. 0. 0. 0. 0. 0. 0. 0. 0.</_>
    <_>
      1. 1. 1. 1. 8.61111104e-01 5.83333313e-01 8.33333313e-01 1. 1.
      8.61111104e-01 4.44444448e-01 4.44444448e-01 4.44444448e-01
      4.72222239e-01 4.72222239e-01 4.44444448e-01 4.16666657e-01
      4.16666657e-01 4.16666657e-01 4.16666657e-01 8.33333313e-01 1. 1.
      1. 8.33333313e-01 7.77777791e-01 6.11111104e-01 5.83333313e-01
      4.72222239e-01 3.88888896e-01 4.44444448e-01 3.05555552e-01
      8.33333358e-02 8.33333358e-02 2.50000000e-01 4.72222239e-01
      6.94444478e-01 7.77777791e-01 8.61111104e-01 9.44444478e-01
      9.44444478e-01 8.05555582e-01 8.33333313e-01 9.16666687e-01
      9.16666687e-01 9.16666687e-01 9.16666687e-01 9.44444478e-01
      9.16666687e-01 8.88888896e-01 8.61111104e-01 7.22222209e-01
      6.38888896e-01 5.83333313e-01 5.00000000e-01 5.55555582e-01
      6.38888896e-01 7.50000000e-01 7.50000000e-01 8.05555582e-01
      9.16666687e-01 9.72222209e-01 8.88888896e-01 7.22222209e-01
      6.11111104e-01 5.83333313e-01 6.11111104e-01 6.38888896e-01
      6.11111104e-01 5.83333313e-01 6.38888896e-01 6.38888896e-01
      5.83333313e-01 6.38888896e-01 7.50000000e-01 9.44444478e-01
      9.44444478e-01 9.44444478e-01 8.88888896e-01 8.05555582e-01
      7.50000000e-01 7.50000000e-01 6.94444478e-01 6.94444478e-01
      6.38888896e-01 5.27777791e-01 5.00000000e-01 4.44444448e-01
      3.61111104e-01 4.72222239e-01 5.27777791e-01 8.33333313e-01
      8.88888896e-01 8.61111104e-01 5.27777791e-01 1.66666672e-01
      1.11111112e-01 0. 3.05555552e-01 4.16666657e-01 4.72222239e-01
      5.83333313e-01 6.66666687e-01 6.66666687e-01 3.61111104e-01
      3.61111104e-01 4.16666657e-01 6.11111104e-01 9.16666687e-01
      9.16666687e-01 6.11111104e-01 4.16666657e-01 3.33333343e-01
      3.05555552e-01 6.11111104e-01 8.33333313e-01 8.05555582e-01
      7.77777791e-01 8.05555582e-01 7.22222209e-01 4.16666657e-01
      3.88888896e-01 3.88888896e-01 5.27777791e-01 8.61111104e-01
      6.38888896e-01 6.38888896e-01 7.50000000e-01 9.16666687e-01
      8.88888896e-01 8.88888896e-01 8.88888896e-01 8.88888896e-01
      8.88888896e-01 8.61111104e-01 8.61111104e-01 9.92125988e-01 1.
      8.74015749e-01 7.87401557e-01 7.87401557e-01 7.55905509e-01
      7.24409461e-01 6.77165329e-01 6.77165329e-01 7.00787425e-01
      7.00787425e-01 7.08661437e-01 7.16535449e-01 6.92913413e-01
      6.61417305e-01 6.53543293e-01 6.69291317e-01 6.29921257e-01
      6.14173234e-01 6.61417305e-01 6.61417305e-01 6.22047246e-01
      5.82677186e-01 5.51181078e-01 5.59055090e-01 6.06299222e-01
      6.85039341e-01 7.40157485e-01 8.03149581e-01 7.95275569e-01
      7.40157485e-01 8.34645689e-01 8.11023593e-01 7.71653533e-01
      7.00787425e-01 6.53543293e-01 7.31707290e-02 0. 0. 1.43472024e-03
      0. 1.43472024e-03 1.43472024e-03 0. 2.86944048e-03 5.73888095e-03
      1.43472024e-03 8.60832166e-03 4.30416083e-03 2.58249640e-02
      3.87374461e-02 1.07604019e-01 1.43472031e-01 3.90243918e-01
      8.46484959e-01 1. 9.69870865e-01 8.47919643e-01 6.42754674e-01
      3.29985648e-01 2.48206601e-01 1.56384513e-01 1.09038740e-01
      3.58680077e-02 2.86944043e-02 4.59110476e-02 1.89383075e-01
      4.30416083e-03 6.16929717e-02 3.73027250e-02 7.31707290e-02
      1.10473461e-01 3.58680077e-02 1.86513625e-02 0. 1.86513625e-02
      7.17360107e-03 0. 2.72596851e-02 2.86944048e-03 2.86944048e-03
      2.86944048e-03 1.43472024e-03 4.30416083e-03 8.60832166e-03 0.
      1.29124820e-02 2.86944043e-02 8.60832166e-03 1.14777619e-02 0.
      1.00430418e-02 4.30416083e-03 0. 5.73888095e-03 0. 1.86513625e-02
      0. 0. 1.43472024e-03 0. 0. 2.86944048e-03 0. 1.43472024e-03
      1.29124820e-02 7.17360107e-03 0. 1.29124820e-02 5.73888095e-03 0.
      7.17360107e-03 1.43472024e-03 0. 2.86944048e-03 1.43472024e-03
      5.16499281e-02 2.86944048e-03 1.29124820e-02 1.57819223e-02 0.
      2.86944048e-03 1.57819223e-02 3.01291253e-02 7.17360107e-03 0.
      2.72596851e-02 0. 1.43472024e-03 1.29124820e-02 1.43472024e-03
      4.30416083e-03 1.43472024e-03 0. 0. 0. 0. 1.43472024e-03 0. 0. 0.
      0. 0. 0. 0. 0. 0. 0. 0. 0. 0. 0. 0. 0. 0. 0. 0. 0. 0. 0. 0. 0. 0.
      0. 0. 0. 0. 0. 0. 0. 0. 0. 0. 0. 0. 0. 0. 0. 0. 0. 0. 0. 0. 0. 0.
      0. 0. 0. 0. 0. 0. 0. 0. 0. 0. 0. 0. 0. 0. 0. 0. 0. 0. 0. 0. 0. 0.
      0. 0. 0. 0. 2.86944048e-03 0. 0. 0. 0.</_>
    <_>
      0. 0. 0. 0. 0. 0. 0. 0. 0. 0. 0. 0. 0. 0. 0. 0. 0. 2.64705896e-01
      8.23529422e-01 1. 6.47058845e-01 1.76470593e-01 5.88235296e-02
      1.76470593e-01 2.64705896e-01 3.82352948e-01 5.58823526e-01
      6.17647052e-01 7.35294104e-01 7.64705896e-01 7.64705896e-01
      7.35294104e-01 7.05882370e-01 7.05882370e-01 7.05882370e-01
      6.76470578e-01 6.76470578e-01 7.05882370e-01 7.05882370e-01
      6.47058845e-01 4.11764711e-01 1.47058830e-01 1.17647059e-01
      5.88235296e-02 5.88235296e-02 5.88235296e-02 5.88235296e-02
      1.17647059e-01 2.35294119e-01 5.00000000e-01 5.88235319e-01
      6.76470578e-01 7.64705896e-01 6.76470578e-01 5.00000000e-01
      4.70588237e-01 4.41176474e-01 5.58823526e-01 5.58823526e-01
      4.41176474e-01 5.00000000e-01 4.70588237e-01 3.82352948e-01
      2.35294119e-01 1.47058830e-01 1.17647059e-01 5.88235296e-02
      5.88235296e-02 5.88235296e-02 1.47058830e-01 1.47058830e-01
      1.47058830e-01 1.76470593e-01 1.17647059e-01 1.17647059e-01
      5.88235296e-02 2.94117648e-02 2.94117648e-02 4.11764711e-01
      5.00000000e-01 5.88235319e-01 6.17647052e-01 6.47058845e-01
      6.17647052e-01 4.11764711e-01 3.23529422e-01 3.52941185e-01
      4.11764711e-01 3.82352948e-01 4.11764711e-01 4.11764711e-01
      4.11764711e-01 6.17647052e-01 5.88235319e-01 5.58823526e-01
      4.11764711e-01 2.94117659e-01 2.05882356e-01 2.94117648e-02
      2.94117648e-02 2.94117648e-02 5.88235296e-02 5.88235296e-02
      5.88235296e-02 5.88235296e-02 5.88235296e-02 5.88235296e-02
      1.47058830e-01 7.64705896e-01 7.94117630e-01 8.23529422e-01
      7.94117630e-01 7.94117630e-01 2.35294119e-01 5.88235296e-02
      5.88235296e-02 5.88235296e-02 2.94117648e-02 2.94117648e-02
      2.94117648e-02 2.94117648e-02 2.94117648e-02 2.94117648e-02
      2.94117648e-02 5.88235296e-02 5.88235296e-02 5.88235296e-02
      5.88235296e-02 5.88235296e-02 8.82352963e-02 2.35294119e-01
      8.23529422e-01 8.23529422e-01 8.23529422e-01 8.23529422e-01
      7.64705896e-01 6.22950792e-01 6.39344215e-01 3.60655725e-01
      2.13114738e-01 5.08196712e-01 5.40983558e-01 6.06557369e-01
      7.37704873e-01 6.39344215e-01 6.88524544e-01 6.88524544e-01
      7.04917967e-01 7.21311450e-01 7.86885202e-01 8.03278625e-01
      8.85245860e-01 9.67213035e-01 9.01639283e-01 7.70491779e-01
      7.37704873e-01 7.21311450e-01 6.88524544e-01 7.04917967e-01
      7.86885202e-01 9.01639283e-01 8.68852437e-01 9.99999940e-01
      9.18032765e-01 6.88524544e-01 4.75409806e-01 3.77049148e-01
      1.96721300e-01 2.29508191e-01 6.72131121e-01 6.72131121e-01
      5.24590135e-01 0. 0. 0. 0. 0. 0. 0. 0. 0. 0. 0. 0. 0. 0. 0. 0. 0.
      0. 0. 0. 0. 0. 0. 0. 0. 0. 0. 0. 0. 0. 0. 0. 0. 0. 0. 0. 0. 0. 0.
      0. 0. 0. 0. 0. 0. 0. 0. 0. 0. 0. 0. 0. 0. 0. 0. 0. 0. 0. 0. 0. 0.
      0. 0. 0. 0. 0. 0. 0. 0. 0. 1.40252453e-03 0. 1.40252453e-03 0.
      4.20757383e-03 5.61009813e-03 0. 2.80504907e-03 1.40252453e-03
      9.53716710e-02 1.12201963e-02 4.20757383e-03 9.81767196e-03
      9.81767196e-03 1.96353439e-02 1.26227206e-02 1.54277701e-02
      6.73211813e-02 7.01262243e-03 2.52454411e-02 2.34221593e-01
      9.39691439e-02 7.01262280e-02 1.90743342e-01 7.85413757e-02
      1.94950908e-01 1.19214587e-01 1.48667604e-01 1.61290318e-01
      1.23422161e-01 1.59887791e-01 1.69705465e-01 1.66900426e-01
      2.04768583e-01 2.65077144e-01 4.22159880e-01 8.83590460e-01 1.
      8.44319761e-01 5.25946677e-01 2.80504912e-01 1.30434781e-01
      6.03085533e-02 2.66479664e-02 1.12201963e-02 5.61009813e-03 0. 0.
      0. 0. 0. 0. 0. 0. 0. 0. 0. 0. 0. 0. 0. 0. 0. 0. 0. 0. 0. 0. 0. 0.
      0. 0. 0. 0. 0. 0. 0. 0. 0. 0. 0. 0. 0. 0. 0. 0. 0. 0. 0. 0. 0. 0.
      0. 0. 0. 0. 0. 0. 0. 0. 0. 0. 0. 0. 0. 0. 0. 0. 0. 0.</_>
    <_>
      5.71428597e-01 5.71428597e-01 5.71428597e-01 5.71428597e-01
      5.71428597e-01 5.71428597e-01 5.71428597e-01 5.71428597e-01
      5.71428597e-01 2.85714298e-01 1.90476194e-01 5.71428597e-01
      5.71428597e-01 5.71428597e-01 5.23809552e-01 5.23809552e-01
      5.23809552e-01 5.23809552e-01 5.23809552e-01 5.23809552e-01
      5.23809552e-01 5.23809552e-01 5.71428597e-01 5.71428597e-01
      5.71428597e-01 5.71428597e-01 5.71428597e-01 5.71428597e-01
      5.71428597e-01 5.71428597e-01 5.71428597e-01 5.23809552e-01
      3.80952388e-01 2.85714298e-01 1.42857149e-01 5.71428597e-01 1.
      6.66666687e-01 1.42857149e-01 1.90476194e-01 2.85714298e-01
      4.28571433e-01 7.61904776e-01 6.66666687e-01 7.61904776e-01
      7.61904776e-01 7.61904776e-01 5.71428597e-01 6.19047642e-01
      6.66666687e-01 7.61904776e-01 8.09523821e-01 8.09523821e-01
      6.19047642e-01 2.85714298e-01 1.90476194e-01 1.42857149e-01
      1.42857149e-01 1.42857149e-01 2.85714298e-01 3.80952388e-01
      4.76190478e-01 4.76190478e-01 5.71428597e-01 5.71428597e-01
      6.19047642e-01 4.28571433e-01 4.76190478e-01 6.66666687e-01
      7.61904776e-01 6.19047642e-01 4.28571433e-01 1.42857149e-01
      4.76190485e-02 4.76190485e-02 9.52380970e-02 9.52380970e-02
      9.52380970e-02 1.42857149e-01 1.90476194e-01 9.52380970e-02
      9.52380970e-02 9.52380970e-02 4.76190485e-02 9.52380970e-02
      9.52380970e-02 1.90476194e-01 2.38095239e-01 2.38095239e-01
      2.38095239e-01 1.90476194e-01 1.90476194e-01 1.90476194e-01
      1.90476194e-01 1.90476194e-01 1.42857149e-01 1.90476194e-01
      4.76190478e-01 7.61904776e-01 7.14285731e-01 4.76190478e-01
      1.42857149e-01 4.76190485e-02 4.76190485e-02 1.90476194e-01
      2.38095239e-01 1.90476194e-01 1.90476194e-01 1.90476194e-01
      1.42857149e-01 1.90476194e-01 1.90476194e-01 1.90476194e-01
      1.90476194e-01 1.90476194e-01 3.33333343e-01 7.61904776e-01
      8.09523821e-01 7.61904776e-01 2.85714298e-01 9.52380970e-02
      9.52380970e-02 9.52380970e-02 5.23809552e-01 6.66666687e-01
      7.14285731e-01 3.33333343e-01 2.85714298e-01 2.38095239e-01
      2.38095239e-01 2.38095239e-01 2.38095239e-01 2.85714298e-01
      2.85714298e-01 6.66666687e-01 6.66666687e-01 1. 7.17391312e-01
      4.67391312e-01 6.95652187e-01 4.13043499e-01 4.67391312e-01
      5.43478251e-01 5.21739125e-01 6.30434811e-01 6.30434811e-01
      6.52173936e-01 6.84782624e-01 4.34782624e-01 3.58695656e-01
      3.47826093e-01 3.15217406e-01 3.47826093e-01 3.04347843e-01
      4.02173907e-01 5.43478251e-01 5.76086938e-01 4.34782624e-01
      2.39130437e-01 1.30434781e-01 1.08695654e-02 1.52173921e-01
      1.30434781e-01 2.82608688e-01 0. 0. 0. 0. 0. 0. 0. 0.
      1.04697987e-01 0. 0. 0. 0. 0. 0. 0. 0. 0. 0. 0. 0. 0. 0.
      1.34228193e-03 0. 0. 0. 0. 0. 0. 0. 0. 0. 0. 0. 0. 0. 0. 0. 0. 0.
      0. 0. 0. 0. 0. 1.34228193e-03 0. 1.47651015e-02 1.34228193e-03
      1.34228193e-03 5.36912773e-03 0. 2.68456386e-03 0. 0. 0.
      2.68456386e-03 5.36912773e-03 1.34228193e-03 0. 0. 0.
      1.34228193e-03 0. 0. 0. 0. 9.39597376e-03 0. 1.34228193e-03
      1.34228193e-03 4.02684603e-03 0. 1.07382555e-02 1.34228193e-03
      5.36912773e-03 1.87919475e-02 3.48993316e-02 2.28187926e-02
      4.02684603e-03 2.81879213e-02 6.71140943e-03 5.10067120e-02
      1.87919475e-02 5.36912773e-03 2.68456377e-02 1.47651015e-02 1.
      1.34228189e-02 2.14765109e-02 4.83221486e-02 2.55033560e-02
      5.63758425e-02 1.20805372e-02 3.22147682e-02 5.77181242e-02
      6.71140943e-03 1.34228200e-01 1.61073841e-02 5.23489937e-02
      3.08724847e-02 1.87919475e-02 5.23489937e-02 2.95302030e-02
      2.55033560e-02 6.30872473e-02 8.18791986e-02 9.26174521e-02
      1.07382551e-01 1.07382551e-01 1.97315440e-01 1.74496651e-01
      2.12080538e-01 9.46308792e-01 2.72483230e-01 4.38926190e-01
      6.48322165e-01 4.87248331e-01 3.42281878e-01 1.74496651e-01
      1.20805375e-01 4.16107401e-02 1.47651015e-02 0. 0. 0. 0.
      1.34228193e-03 0. 0. 0. 0. 0. 0. 0. 0. 0. 0. 0. 0. 0. 0.
      1.34228193e-03 0. 0. 0. 0. 1.34228193e-03 0. 0. 0. 0. 0. 0. 0. 0.
      0. 0. 0. 0. 0. 0. 0. 0. 0. 0. 0. 0. 0. 0. 0. 0. 0. 0. 0. 0. 0. 0.
      0. 0. 1.34228193e-03 0. 0. 0. 0. 0. 0.</_>
    <_>
      8.63636374e-01 8.18181872e-01 8.63636374e-01 9.09090936e-01
      8.63636374e-01 8.18181872e-01 8.63636374e-01 8.63636374e-01
      9.54545498e-01 9.54545498e-01 9.54545498e-01 9.09090936e-01
      9.09090936e-01 9.09090936e-01 8.63636374e-01 8.18181872e-01
      8.63636374e-01 8.63636374e-01 8.63636374e-01 9.09090936e-01 1. 1.
      1. 1. 1. 7.27272749e-01 5.90909123e-01 8.63636374e-01
      9.09090936e-01 1. 1. 1. 1. 1. 9.09090936e-01 9.09090936e-01
      7.27272749e-01 7.72727311e-01 6.81818187e-01 8.63636374e-01
      9.09090936e-01 8.18181872e-01 8.18181872e-01 9.09090936e-01 1.
      6.81818187e-01 6.81818187e-01 8.18181872e-01 7.72727311e-01
      8.63636374e-01 8.63636374e-01 7.72727311e-01 7.72727311e-01
      8.18181872e-01 8.63636374e-01 8.63636374e-01 9.54545498e-01
      8.63636374e-01 8.63636374e-01 8.18181872e-01 8.18181872e-01
      6.36363626e-01 5.90909123e-01 6.36363626e-01 7.27272749e-01
      5.00000000e-01 5.00000000e-01 5.00000000e-01 5.00000000e-01
      5.90909123e-01 6.81818187e-01 6.36363626e-01 6.81818187e-01
      7.72727311e-01 8.18181872e-01 9.09090936e-01 9.09090936e-01
      9.09090936e-01 9.09090936e-01 9.54545498e-01 8.63636374e-01
      8.18181872e-01 6.36363626e-01 4.09090936e-01 4.54545468e-01
      4.54545468e-01 5.00000000e-01 6.36363626e-01 6.36363626e-01
      7.27272749e-01 7.27272749e-01 6.81818187e-01 8.63636374e-01
      8.63636374e-01 1. 9.54545498e-01 8.18181872e-01 6.36363626e-01
      6.81818187e-01 6.36363626e-01 5.00000000e-01 5.45454562e-01
      7.27272749e-01 5.45454562e-01 7.27272749e-01 8.18181872e-01
      8.18181872e-01 7.27272749e-01 7.72727311e-01 7.72727311e-01
      7.27272749e-01 7.27272749e-01 7.72727311e-01 8.18181872e-01
      7.72727311e-01 7.72727311e-01 7.72727311e-01 7.72727311e-01
      8.63636374e-01 8.63636374e-01 8.18181872e-01 7.72727311e-01
      6.36363626e-01 5.45454562e-01 5.90909123e-01 6.36363626e-01
      4.54545468e-01 2.27272734e-01 1.81818187e-01 4.54545468e-02
      4.54545468e-02 4.54545468e-02 9.09090936e-02 9.09090936e-02
      4.54545468e-02 0. 5.26315793e-02 1.49122804e-01 9.64912325e-02
      2.10526317e-01 2.28070170e-01 2.54385978e-01 3.77192974e-01
      3.85964930e-01 5.26315808e-01 5.43859661e-01 6.49122834e-01
      7.10526347e-01 8.59649122e-01 8.33333313e-01 8.50877225e-01 1.
      9.64912295e-01 9.21052635e-01 8.77192974e-01 8.85964930e-01
      9.03508782e-01 8.77192974e-01 7.28070199e-01 7.01754391e-01
      8.50877225e-01 8.24561417e-01 6.66666687e-01 6.22807026e-01
      4.91228074e-01 4.21052635e-01 3.07017535e-01 2.71929830e-01
      2.45614037e-01 8.77192989e-02 2.63157897e-02 0. 1.69811323e-01 0.
      0. 0. 0. 2.83018872e-02 3.53773609e-02 0. 9.43396240e-03
      2.35849060e-03 1.65094342e-02 1.41509436e-02 4.71698120e-03
      1.88679248e-02 4.71698120e-03 1.17924530e-02 2.35849060e-03
      4.71698120e-03 1.17924530e-02 4.71698120e-03 1.41509436e-02
      9.43396240e-03 0. 1.17924530e-02 4.48113233e-02 4.48113233e-02
      3.53773609e-02 9.43396240e-03 1.88679248e-02 1.65094342e-02
      1.15566038e-01 0. 1.88679248e-02 4.71698120e-03 4.24528308e-02
      1.86320752e-01 9.43396240e-03 7.07547180e-03 4.95283008e-02
      3.06603778e-02 1.41509436e-02 4.71698120e-03 7.07547180e-03
      4.24528308e-02 2.35849060e-03 3.53773609e-02 4.71698120e-03
      4.71698120e-03 6.83962256e-02 2.35849060e-03 1.41509436e-02
      8.01886767e-02 7.07547180e-03 7.07547180e-03 0. 1.27358496e-01 0.
      0. 0. 0. 4.48113233e-02 0. 0. 4.71698120e-03 2.35849060e-03
      4.71698120e-03 5.42452857e-02 0. 2.35849060e-03 7.07547180e-03
      2.12264154e-02 2.35849060e-03 4.71698120e-03 4.00943384e-02
      2.35849060e-03 3.77358496e-02 7.07547180e-03 2.35849060e-03
      2.35849060e-03 4.71698120e-03 2.83018872e-02 1.41509436e-02 0.
      5.18867932e-02 1.88679248e-02 3.53773609e-02 9.43396240e-03
      2.35849060e-02 7.07547180e-03 7.07547180e-03 1.34433970e-01
      5.18867932e-02 1.10849060e-01 1.39150947e-01 7.31132105e-02
      2.40566045e-01 1.74528301e-01 1.13207549e-01 2.57075489e-01
      2.19339624e-01 2.73584902e-01 4.26886797e-01 3.49056602e-01
      4.55188692e-01 6.13207579e-01 1. 7.97169805e-01 8.20754707e-01
      6.41509414e-01 6.01415098e-01 3.60849053e-01 2.45283023e-01
      1.69811323e-01 1.25000000e-01 2.45283023e-01 6.13207556e-02
      1.22641511e-01 5.42452857e-02 4.24528308e-02 4.71698120e-02
      1.50943398e-01 4.71698120e-03 1.01415098e-01 2.83018872e-02
      3.53773609e-02 1.22641511e-01 2.12264154e-02 2.83018872e-02
      1.65094342e-02 2.35849060e-03 4.71698120e-03 2.35849060e-03 0.
      7.07547180e-03 0. 4.71698120e-03 2.35849060e-03 2.35849060e-03 0.
      2.35849060e-03 4.71698120e-03 2.35849060e-03 0. 0. 2.35849060e-03
      0. 0. 0. 0. 0. 9.43396240e-03 0. 0. 0. 0. 0. 4.48113233e-02 0.
      2.35849060e-03 2.35849060e-03 0. 0. 0. 0. 0. 2.83018872e-02 0. 0.
      2.35849060e-03 0. 0. 0. 0. 6.83962256e-02 0. 0. 2.35849060e-03 0.
      0. 0.</_>
    <_>
      9.68750000e-01 9.68750000e-01 9.68750000e-01 9.68750000e-01
      9.37500000e-01 9.37500000e-01 1. 9.37500000e-01 3.75000000e-01
      3.43750000e-01 6.87500000e-01 8.75000000e-01 9.06250000e-01
      9.06250000e-01 9.37500000e-01 9.06250000e-01 9.06250000e-01
      9.06250000e-01 9.37500000e-01 9.37500000e-01 8.43750000e-01
      8.12500000e-01 3.75000000e-01 3.75000000e-01 4.06250000e-01
      2.50000000e-01 3.43750000e-01 5.93750000e-01 8.43750000e-01
      9.37500000e-01 8.43750000e-01 6.87500000e-01 6.87500000e-01
      8.12500000e-01 8.12500000e-01 8.12500000e-01 7.50000000e-01
      6.87500000e-01 5.31250000e-01 4.06250000e-01 2.81250000e-01
      3.43750000e-01 2.81250000e-01 3.43750000e-01 3.43750000e-01
      2.81250000e-01 2.18750000e-01 2.81250000e-01 6.56250000e-01
      7.81250000e-01 8.12500000e-01 8.43750000e-01 6.87500000e-01
      5.62500000e-01 5.00000000e-01 5.00000000e-01 6.25000000e-01
      8.12500000e-01 8.12500000e-01 6.87500000e-01 5.31250000e-01
      2.50000000e-01 1.87500000e-01 1.87500000e-01 4.06250000e-01
      5.00000000e-01 5.31250000e-01 5.31250000e-01 5.62500000e-01
      5.62500000e-01 5.31250000e-01 5.31250000e-01 5.31250000e-01
      5.93750000e-01 5.31250000e-01 5.31250000e-01 5.00000000e-01
      2.81250000e-01 1.56250000e-01 2.18750000e-01 6.56250000e-01
      7.50000000e-01 7.81250000e-01 8.12500000e-01 6.56250000e-01
      5.00000000e-01 4.37500000e-01 5.31250000e-01 6.87500000e-01
      7.81250000e-01 8.75000000e-01 8.43750000e-01 6.25000000e-01
      3.12500000e-01 9.37500000e-02 3.12500000e-01 4.37500000e-01
      5.62500000e-01 6.25000000e-01 8.12500000e-01 8.12500000e-01
      7.81250000e-01 7.50000000e-01 6.87500000e-01 5.62500000e-01
      6.25000000e-01 5.62500000e-01 4.37500000e-01 3.75000000e-01
      2.18750000e-01 1.56250000e-01 6.25000000e-01 8.12500000e-01
      8.12500000e-01 7.81250000e-01 7.18750000e-01 3.12500000e-01
      2.81250000e-01 2.81250000e-01 2.81250000e-01 3.12500000e-01
      2.81250000e-01 3.12500000e-01 2.50000000e-01 1.56250000e-01
      3.12500000e-01 8.43750000e-01 9.37500000e-01 9.06250000e-01
      6.25000000e-01 6.25000000e-01 6.87500000e-01 8.43750000e-01
      8.75000000e-01 8.75000000e-01 8.43750000e-01 9.99999940e-01
      8.77049148e-01 6.80327833e-01 6.55737638e-01 6.88524544e-01
      5.73770463e-01 4.26229477e-01 4.01639313e-01 5.49180269e-01
      6.47540927e-01 6.31147504e-01 6.22950792e-01 6.47540927e-01
      6.63934410e-01 7.21311450e-01 7.70491779e-01 7.13114738e-01
      7.21311450e-01 7.13114738e-01 6.63934410e-01 6.14754081e-01
      5.81967175e-01 5.57377040e-01 6.06557369e-01 5.98360598e-01
      6.96721256e-01 6.88524544e-01 5.57377040e-01 4.26229477e-01
      3.93442601e-01 4.34426218e-01 3.85245889e-01 4.42622930e-01
      3.11475396e-01 3.77049148e-01 4.91803259e-01 1.76678447e-03 0. 0.
      0. 0. 0. 0. 0. 0. 0. 0. 0. 0. 0. 1.76678447e-03 1.76678447e-03
      1.76678447e-03 3.53356893e-03 0. 0. 3.53356893e-03 0. 0.
      1.76678447e-03 0. 0. 5.30035328e-03 1.76678447e-03 0. 0.
      1.06007066e-02 0. 0. 1.76678447e-03 5.30035328e-03 1.23674916e-02
      7.06713786e-03 3.53356893e-03 7.06713786e-03 5.30035328e-03
      8.83392245e-03 3.53356893e-03 0. 8.83392245e-03 0. 3.53356893e-03
      0. 0. 3.53356893e-03 1.76678447e-03 7.06713786e-03 5.30035328e-03
      0. 1.76678447e-03 3.53356893e-03 3.53356893e-03 3.53356893e-03 0.
      1.76678447e-03 0. 1.59010608e-02 0. 3.53356893e-03 1.76678447e-03
      1.41342757e-02 5.30035328e-03 8.83392245e-03 5.30035328e-03
      5.30035328e-03 1.76678447e-03 8.83392245e-03 1.76678447e-03
      7.06713786e-03 7.06713786e-03 1.59010608e-02 1.94346290e-02
      1.59010608e-02 1.41342757e-02 2.47349832e-02 1.76678449e-02
      3.35689038e-02 3.00353356e-02 2.82685515e-02 3.71024720e-02
      4.24028262e-02 3.53356898e-02 9.18727890e-02 8.48056525e-02
      1.14840992e-01 1.36042401e-01 4.78798598e-01 3.32155466e-01
      3.55123669e-01 3.58657241e-01 4.48763251e-01 7.10247338e-01
      8.39222610e-01 1. 9.94699657e-01 6.78445220e-01 3.81625444e-01
      2.91519433e-01 1.78445235e-01 1.21908128e-01 1.50176674e-01
      8.30388665e-02 5.83038889e-02 2.12014131e-02 2.47349832e-02
      2.47349832e-02 2.12014131e-02 2.65017673e-02 3.53356893e-03
      1.59010608e-02 5.30035328e-03 1.06007066e-02 1.76678447e-03
      5.30035328e-03 1.76678447e-03 1.76678447e-03 1.23674916e-02 0. 0.
      3.53356893e-03 3.53356893e-03 1.76678447e-03 1.76678447e-03
      3.53356893e-03 3.53356893e-03 0. 1.76678447e-03 0. 3.53356893e-03
      0. 0. 3.53356893e-03 0. 0. 0. 1.76678447e-03 0. 0. 0. 0.
      1.76678447e-03 0. 0. 0. 1.76678447e-03 0. 0. 0. 0. 0. 0.
      1.76678447e-03 1.76678447e-03 0. 0. 1.76678447e-03 1.76678447e-03
      3.53356893e-03 1.76678447e-03 0. 0. 0. 0. 0. 0. 1.76678447e-03 0.
      1.76678447e-03 0. 0. 1.76678447e-03 0. 0. 1.76678447e-03 0. 0.</_>
    <_>
      9.61538494e-01 9.61538494e-01 9.61538494e-01 9.61538494e-01
      9.61538494e-01 9.61538494e-01 9.61538494e-01 9.23076987e-01
      8.84615421e-01 9.61538494e-01 9.61538494e-01 9.61538494e-01
      9.61538494e-01 9.61538494e-01 1. 9.61538494e-01 9.61538494e-01
      9.61538494e-01 7.69230783e-01 2.30769247e-01 3.84615399e-02
      1.15384623e-01 7.69230798e-02 2.69230783e-01 4.61538494e-01
      5.76923072e-01 5.76923072e-01 5.76923072e-01 5.38461566e-01
      4.61538494e-01 6.15384638e-01 6.92307711e-01 5.76923072e-01
      3.07692319e-01 1.15384623e-01 3.84615399e-02 3.84615399e-02
      5.38461566e-01 8.84615421e-01 8.07692349e-01 2.69230783e-01
      1.92307696e-01 1.92307696e-01 1.92307696e-01 1.92307696e-01
      1.92307696e-01 1.53846160e-01 1.53846160e-01 7.69230798e-02
      1.15384623e-01 3.84615399e-02 7.69230798e-02 7.69230798e-02
      7.69230798e-02 7.69230798e-02 7.69230798e-02 7.69230798e-02
      1.15384623e-01 9.61538494e-01 9.61538494e-01 7.30769277e-01
      4.23076928e-01 4.61538494e-01 6.15384638e-01 7.69230783e-01
      6.15384638e-01 7.69230783e-01 7.30769277e-01 4.61538494e-01
      1.53846160e-01 1.15384623e-01 1.15384623e-01 6.92307711e-01
      8.46153855e-01 4.61538494e-01 3.07692319e-01 2.69230783e-01
      3.07692319e-01 3.84615391e-01 3.46153855e-01 4.61538494e-01
      8.84615421e-01 7.30769277e-01 2.69230783e-01 1.15384623e-01
      1.15384623e-01 2.30769247e-01 3.46153855e-01 3.84615391e-01
      3.46153855e-01 4.23076928e-01 4.23076928e-01 4.23076928e-01
      4.61538494e-01 5.38461566e-01 6.92307711e-01 5.76923072e-01
      2.30769247e-01 3.84615399e-02 3.84615399e-02 7.69230798e-02
      2.69230783e-01 3.84615391e-01 5.38461566e-01 3.84615391e-01
      4.23076928e-01 3.84615391e-01 3.46153855e-01 4.61538494e-01
      5.00000000e-01 5.38461566e-01 3.84615391e-01 3.84615399e-02
      3.84615399e-02 3.84615399e-02 5.00000000e-01 7.30769277e-01
      6.15384638e-01 3.07692319e-01 2.69230783e-01 2.30769247e-01
      1.92307696e-01 2.69230783e-01 2.69230783e-01 7.69230783e-01
      6.92307711e-01 3.46153855e-01 3.84615399e-02 3.84615399e-02 0.
      6.15384638e-01 7.30769277e-01 7.30769277e-01 7.30769277e-01
      7.30769277e-01 7.30769277e-01 8.53333354e-01 7.59999990e-01
      3.33333343e-01 3.33333343e-01 4.00000006e-01 6.53333366e-01
      8.66666675e-01 1. 9.86666679e-01 7.73333371e-01 7.59999990e-01
      9.20000017e-01 8.13333333e-01 7.73333371e-01 9.46666718e-01
      8.53333354e-01 9.33333337e-01 8.66666675e-01 8.13333333e-01
      6.93333328e-01 6.00000024e-01 7.33333349e-01 7.20000029e-01
      6.39999986e-01 6.13333344e-01 3.86666685e-01 3.33333343e-01
      1.59999996e-01 2.66666673e-02 0. 0. 0. 4.13333356e-01
      4.66666669e-01 6.93333328e-01 5.33333361e-01 3.14814806e-01 0. 0.
      0. 0. 0. 0. 0. 0. 0. 0. 0. 0. 0. 0. 0. 0. 0. 0. 0. 0. 0. 0. 0. 0.
      0. 0. 0. 0. 0. 1.02880653e-02 0. 0. 0. 0. 6.17283918e-02 0. 0. 0.
      0. 0. 0. 0. 6.17283918e-02 0. 6.17283955e-03 0. 0. 0. 0.
      1.85185187e-02 1.02880653e-02 1.02880653e-02 0. 1.02880653e-02
      8.23045243e-03 1.23456791e-02 0. 1.02880653e-02 0. 2.88065840e-02
      0. 6.17283955e-03 2.05761311e-03 1.02880653e-02 3.70370373e-02
      1.85185187e-02 3.70370373e-02 1.85185187e-02 1.23456791e-02
      3.49794216e-02 4.11522621e-03 3.08641959e-02 1.44032920e-02
      1.23456791e-02 2.65432090e-01 3.70370373e-02 3.08641959e-02
      2.46913582e-02 2.05761306e-02 9.99999940e-01 2.05761306e-02
      1.44032920e-02 1.23456784e-01 3.70370373e-02 6.58436194e-02
      6.17283918e-02 8.23045224e-02 4.73251007e-02 3.08641959e-02
      1.31687239e-01 4.11522612e-02 1.21399172e-01 1.74897119e-01
      1.09053493e-01 1.31687239e-01 1.70781881e-01 1.87242791e-01
      2.53086418e-01 1.99588478e-01 2.30452672e-01 3.45679015e-01
      4.50617284e-01 7.63374448e-01 6.56378567e-01 6.70781851e-01
      8.76543164e-01 5.20576119e-01 4.58847731e-01 3.29218090e-01
      2.26337448e-01 1.39917687e-01 1.29629627e-01 4.93827164e-02
      3.29218097e-02 4.11522621e-03 0. 4.11522621e-03 0. 0. 0. 0. 0. 0.
      0. 0. 0. 0. 0. 0. 0. 0. 0. 0. 0. 0. 0. 0. 0. 0. 0. 0. 0. 0. 0. 0.
      0. 0. 0. 0. 0. 0. 0. 0. 0. 0. 0. 0. 0. 0. 0. 0. 0. 0. 0. 0. 0. 0.
      0. 0. 0. 0. 0. 0. 0. 0. 0. 0. 0. 0.</_>
    <_>
      8.57142866e-01 8.57142866e-01 8.57142866e-01 8.57142866e-01
      8.57142866e-01 8.57142866e-01 8.57142866e-01 8.57142866e-01
      8.57142866e-01 8.57142866e-01 8.57142866e-01 9.71428573e-01 1. 1.
      1. 1. 9.71428573e-01 1.71428576e-01 2.00000003e-01 2.57142872e-01
      4.28571433e-01 5.71428597e-01 5.42857170e-01 4.85714287e-01
      4.57142860e-01 4.57142860e-01 4.57142860e-01 5.14285743e-01
      4.85714287e-01 4.00000006e-01 2.28571430e-01 1.42857149e-01
      1.42857149e-01 1.42857149e-01 2.28571430e-01 2.85714298e-01
      3.71428579e-01 3.71428579e-01 5.14285743e-01 4.85714287e-01
      4.57142860e-01 5.42857170e-01 5.14285743e-01 4.57142860e-01
      2.57142872e-01 1.42857149e-01 1.14285715e-01 1.14285715e-01
      1.14285715e-01 1.14285715e-01 1.42857149e-01 1.42857149e-01
      1.42857149e-01 1.14285715e-01 8.57142881e-02 2.28571430e-01
      4.85714287e-01 3.71428579e-01 2.00000003e-01 2.00000003e-01
      2.28571430e-01 2.85714298e-01 3.42857152e-01 4.28571433e-01
      2.57142872e-01 1.71428576e-01 1.42857149e-01 1.14285715e-01
      1.14285715e-01 8.57142881e-02 1.71428576e-01 2.28571430e-01
      2.85714298e-01 2.85714298e-01 2.57142872e-01 2.85714298e-01
      2.57142872e-01 2.85714298e-01 2.85714298e-01 2.57142872e-01
      2.00000003e-01 8.57142881e-02 8.57142881e-02 8.57142881e-02
      8.57142881e-02 1.14285715e-01 1.42857149e-01 1.71428576e-01
      1.71428576e-01 1.42857149e-01 1.42857149e-01 1.42857149e-01
      1.71428576e-01 1.42857149e-01 1.71428576e-01 8.57142881e-02
      5.71428575e-02 0. 2.85714287e-02 2.85714287e-02 1.42857149e-01
      2.00000003e-01 2.28571430e-01 2.85714298e-01 2.00000003e-01
      1.42857149e-01 1.14285715e-01 1.14285715e-01 8.57142881e-02
      8.57142881e-02 2.85714287e-02 0. 0. 0. 2.85714287e-02
      5.71428575e-02 5.71428575e-02 5.71428575e-02 5.71428575e-02
      8.57142881e-02 8.57142881e-02 8.57142881e-02 8.57142881e-02
      1.42857149e-01 8.57142881e-02 5.71428575e-02 0. 0. 0. 0. 0. 0. 0.
      0. 0. 0. 1. 9.48979557e-01 7.65306115e-01 5.40816307e-01
      5.81632614e-01 3.87755096e-01 2.34693870e-01 2.85714269e-01
      3.46938759e-01 3.36734682e-01 3.67346942e-01 4.18367326e-01
      3.57142836e-01 3.46938759e-01 3.46938759e-01 3.46938759e-01
      4.08163249e-01 3.16326529e-01 3.97959173e-01 2.75510192e-01
      3.77551019e-01 3.67346942e-01 3.16326529e-01 4.59183663e-01
      4.59183663e-01 4.48979586e-01 4.59183663e-01 3.26530606e-01
      3.57142836e-01 2.24489793e-01 1.42857134e-01 2.24489793e-01
      1.63265303e-01 8.16326514e-02 1.73469380e-01 5.10204062e-02 0. 0.
      0. 0. 0. 0. 0. 0. 0. 0. 0. 0. 0. 0. 0. 0. 0. 0. 0. 0. 0. 0. 0. 0.
      0. 0. 0. 0. 0. 0. 0. 0. 0. 0. 0. 0. 0. 0. 0. 0. 0. 0. 0. 0. 0. 0.
      0. 0. 0. 0. 0. 0. 0. 1.42045459e-03 0. 0. 8.52272753e-03 0. 0. 0.
      4.82954569e-02 0. 0. 0. 2.84090918e-03 5.68181835e-03
      2.41477285e-02 0. 0. 1.42045459e-03 4.40340936e-02 0.
      1.42045459e-03 5.68181835e-03 0. 4.11931835e-02 0. 1.70454551e-02
      5.68181835e-03 5.68181835e-03 3.46590906e-01 1.13636367e-02 0.
      8.52272753e-03 2.13068184e-02 1.27840918e-02 5.68181835e-03
      1.42045459e-02 1.42045459e-03 0. 4.11931835e-02 0. 1.42045459e-02
      3.55113633e-02 1.70454551e-02 5.11363670e-02 2.13068184e-02
      7.10227294e-03 9.65909138e-02 6.39204532e-02 3.55113633e-02
      6.53409138e-02 9.65909138e-02 2.01704547e-01 2.01704547e-01
      2.79829562e-01 5.49715936e-01 4.82954562e-01 7.42897749e-01 1.
      8.45170498e-01 6.16477311e-01 3.87784094e-01 1.67613640e-01
      8.94886404e-02 3.26704569e-02 3.12500000e-02 2.98295468e-02
      1.27840918e-02 1.27840918e-02 2.13068184e-02 0. 0. 0.
      6.81818202e-02 0. 0. 0. 0. 0. 0. 0. 0. 0. 0. 0. 0. 0. 0. 0. 0. 0.
      0. 0. 0. 0. 0. 0. 0. 0. 0. 0. 0. 0. 0. 0. 0. 0. 0. 0. 0. 0. 0. 0.
      0. 0. 0. 0. 0. 0. 0. 0. 0. 0. 0. 0. 0. 0. 0. 0.</_>
    <_>
      1.21212125e-01 3.03030312e-02 3.63636374e-01 7.27272749e-01
      7.57575750e-01 7.27272749e-01 5.15151501e-01 3.03030312e-02
      6.06060624e-02 3.03030312e-02 3.03030312e-02 1.21212125e-01
      1.21212125e-01 9.09090936e-02 9.09090936e-02 3.03030312e-02
      4.24242437e-01 6.36363626e-01 7.57575750e-01 7.57575750e-01
      7.57575750e-01 7.57575750e-01 6.96969748e-01 5.45454562e-01
      2.42424250e-01 1.51515156e-01 1.51515156e-01 9.09090936e-02
      9.09090936e-02 1.21212125e-01 1.21212125e-01 6.36363626e-01
      7.87878811e-01 8.18181872e-01 8.18181872e-01 8.48484874e-01
      8.18181872e-01 8.18181872e-01 7.87878811e-01 7.57575750e-01
      6.96969748e-01 6.06060624e-01 1.21212125e-01 1.21212125e-01
      1.21212125e-01 9.09090936e-02 2.12121218e-01 7.57575750e-01
      8.18181872e-01 8.48484874e-01 8.48484874e-01 8.48484874e-01
      8.48484874e-01 8.18181872e-01 8.18181872e-01 7.27272749e-01
      7.27272749e-01 6.96969748e-01 4.24242437e-01 2.42424250e-01
      1.21212125e-01 1.21212125e-01 2.12121218e-01 3.03030312e-01
      5.15151501e-01 6.06060624e-01 6.36363626e-01 6.66666687e-01
      7.57575750e-01 6.36363626e-01 6.96969748e-01 6.96969748e-01
      6.66666687e-01 4.84848499e-01 1.51515156e-01 1.51515156e-01
      2.12121218e-01 1.51515156e-01 7.87878811e-01 7.57575750e-01
      8.18181872e-01 8.48484874e-01 8.48484874e-01 8.78787875e-01
      8.48484874e-01 8.18181872e-01 7.57575750e-01 7.87878811e-01
      7.87878811e-01 6.06060624e-01 1.81818187e-01 2.12121218e-01
      2.12121218e-01 2.12121218e-01 8.78787875e-01 8.78787875e-01
      9.09090936e-01 9.69696999e-01 9.69696999e-01 9.69696999e-01
      9.39393997e-01 8.78787875e-01 9.09090936e-01 8.48484874e-01
      8.18181872e-01 8.18181872e-01 1.81818187e-01 1.81818187e-01
      1.51515156e-01 1.81818187e-01 7.57575750e-01 8.48484874e-01
      8.48484874e-01 7.87878811e-01 8.78787875e-01 8.78787875e-01
      8.78787875e-01 8.78787875e-01 8.48484874e-01 8.78787875e-01
      8.48484874e-01 8.48484874e-01 3.03030312e-01 3.03030312e-01
      2.42424250e-01 2.42424250e-01 7.27272749e-01 9.39393997e-01 1.
      9.69696999e-01 3.03030312e-01 3.03030312e-01 9.39393997e-01 1.
      5.15151501e-01 3.03030312e-01 1. 9.19117630e-01 8.30882370e-01
      4.85294133e-01 2.50000000e-01 2.20588241e-02 7.35294148e-02
      2.35294119e-01 1.32352948e-01 2.79411763e-01 4.48529422e-01
      4.70588237e-01 5.73529422e-01 6.02941155e-01 5.73529422e-01
      6.47058845e-01 6.54411793e-01 6.47058845e-01 6.47058845e-01
      6.17647052e-01 6.47058845e-01 6.76470578e-01 6.76470578e-01
      6.25000000e-01 5.73529422e-01 5.95588267e-01 5.58823526e-01
      6.02941155e-01 5.88235319e-01 6.17647052e-01 6.83823526e-01
      7.79411793e-01 6.69117630e-01 1.61764711e-01 7.35294120e-03 0.
      1.34408602e-03 1.34408602e-03 1.34408602e-03 0. 1.34408602e-03
      1.34408602e-03 0. 0. 0. 0. 0. 0. 0. 0. 0. 0. 0. 0. 0. 0. 0. 0. 0.
      0. 0. 0. 0. 0. 0. 0. 0. 0. 0. 0. 0. 0. 0. 0. 0. 0. 0. 0. 0. 0. 0.
      0. 0. 0. 0. 0. 0. 0. 0. 0. 0. 0. 0. 0. 0. 0. 0. 0. 0. 0. 0. 0. 0.
      0. 0. 0. 0. 0. 0. 0. 0. 0. 0. 0. 0. 0. 0. 0. 0. 0. 2.68817204e-03
      2.68817204e-03 2.68817204e-03 1.34408602e-03 2.68817204e-03
      1.47849461e-02 6.18279576e-02 1.88172050e-02 3.62903215e-02
      2.15053763e-02 4.83870953e-02 1.00806452e-01 5.37634417e-02
      1.19623654e-01 3.79032254e-01 5.14784932e-01 4.70430106e-01
      9.05913949e-01 9.55645144e-01 1. 6.61290348e-01 8.01075280e-01
      1.93548381e-01 9.00537670e-02 2.01612897e-02 1.20967738e-02
      1.07526882e-02 9.40860249e-03 4.03225794e-03 0. 1.34408602e-03 0.
      1.34408602e-03 1.34408602e-03 1.34408602e-03 0. 4.03225794e-03 0.
      0. 0. 0. 1.34408602e-03 0. 1.34408602e-03 1.34408602e-03 0.
      1.34408602e-03 0. 1.34408602e-03 0. 0. 1.34408602e-03 0. 0. 0.
      1.34408602e-03 0. 1.34408602e-03 0. 1.34408602e-03 0.
      2.68817204e-03 1.34408602e-03 0. 0. 0. 5.37634408e-03 0. 0.
      1.34408602e-03 0. 0. 0. 0. 0. 0. 0. 1.34408602e-03 0.
      1.34408602e-03 0. 2.68817204e-03 2.68817204e-03 1.34408602e-03
      1.34408602e-03 2.68817204e-03 0. 1.34408602e-03 1.34408602e-03
      1.34408602e-03 1.34408602e-03 1.34408602e-03 1.34408602e-03
      2.68817204e-03 0. 1.34408602e-03</_>
    <_>
      0. 0. 0. 0. 0. 0. 4.72222239e-01 8.61111104e-01 8.61111104e-01
      7.50000000e-01 2.77777791e-01 2.22222224e-01 2.50000000e-01
      2.77777791e-01 3.33333343e-01 4.72222239e-01 3.33333343e-01
      2.77777791e-01 2.77777791e-01 2.77777791e-01 6.11111104e-01
      9.16666687e-01 9.16666687e-01 9.16666687e-01 8.33333313e-01
      8.05555582e-01 8.05555582e-01 8.05555582e-01 8.33333313e-01
      9.44444478e-01 9.72222209e-01 7.77777791e-01 5.55555582e-01
      3.88888896e-01 3.05555552e-01 3.05555552e-01 1.94444448e-01
      2.50000000e-01 2.22222224e-01 1.66666672e-01 2.50000000e-01
      4.44444448e-01 6.38888896e-01 8.33333313e-01 9.72222209e-01 1. 1.
      9.44444478e-01 6.94444478e-01 4.44444448e-01 4.72222239e-01
      5.27777791e-01 6.38888896e-01 6.94444478e-01 6.94444478e-01
      6.66666687e-01 6.38888896e-01 5.83333313e-01 6.11111104e-01
      6.66666687e-01 8.33333313e-01 1. 1. 9.44444478e-01 8.33333313e-01
      7.22222209e-01 6.66666687e-01 6.11111104e-01 5.83333313e-01
      6.66666687e-01 6.94444478e-01 6.66666687e-01 6.11111104e-01
      5.55555582e-01 5.55555582e-01 6.66666687e-01 8.61111104e-01 1. 1.
      9.72222209e-01 8.61111104e-01 5.55555582e-01 4.44444448e-01
      4.44444448e-01 6.11111104e-01 6.66666687e-01 6.94444478e-01
      7.22222209e-01 6.38888896e-01 5.83333313e-01 5.00000000e-01
      5.55555582e-01 9.16666687e-01 9.16666687e-01 9.44444478e-01
      8.33333313e-01 7.77777791e-01 5.27777791e-01 3.88888896e-01
      2.77777791e-01 3.05555552e-01 4.72222239e-01 5.00000000e-01
      6.11111104e-01 6.11111104e-01 5.83333313e-01 4.72222239e-01
      6.38888896e-01 6.94444478e-01 8.61111104e-01 9.44444478e-01
      9.44444478e-01 9.44444478e-01 8.33333313e-01 5.27777791e-01
      3.05555552e-01 2.50000000e-01 3.61111104e-01 4.16666657e-01
      3.05555552e-01 3.61111104e-01 5.27777791e-01 5.55555582e-01
      6.38888896e-01 7.50000000e-01 9.16666687e-01 9.16666687e-01
      6.38888896e-01 1.66666672e-01 0. 0. 0. 5.55555560e-02
      8.33333358e-02 8.33333358e-02 5.55555560e-02 7.33944893e-01
      7.52293527e-01 8.25688064e-01 9.99999940e-01 9.26605463e-01
      8.16513717e-01 6.51376128e-01 5.87155938e-01 6.14678860e-01
      6.23853207e-01 6.42201781e-01 6.78899050e-01 7.24770606e-01
      7.24770606e-01 6.23853207e-01 5.41284382e-01 5.68807304e-01
      6.23853207e-01 6.88073337e-01 7.33944893e-01 7.15596318e-01
      7.33944893e-01 8.07339430e-01 8.16513717e-01 6.69724762e-01
      5.87155938e-01 5.50458670e-01 5.68807304e-01 5.77981651e-01
      6.60550416e-01 7.15596318e-01 9.26605463e-01 9.90825653e-01
      8.62385273e-01 7.33944893e-01 6.05504572e-01 0. 0. 0. 0. 0. 0. 0.
      0. 0. 0. 0. 0. 0. 0. 0. 0. 0. 0. 0. 0. 0. 0. 0. 0. 0. 0. 0. 0. 0.
      0. 0. 0. 0. 0. 0. 0. 0. 0. 0. 0. 0. 0. 0. 8.40336143e-04 0. 0.
      1.68067229e-03 4.20168089e-03 3.36134457e-03 1.68067229e-03
      1.68067229e-03 5.04201697e-03 4.20168089e-03 5.04201697e-03
      2.60504205e-02 5.04201697e-03 2.85714287e-02 4.20168089e-03
      1.68067235e-02 3.36134457e-03 1.42857144e-02 5.88235306e-03
      1.93277318e-02 4.36974801e-02 1.93277318e-02 4.03361358e-02
      5.88235296e-02 7.98319355e-02 9.15966406e-02 1.76470593e-01
      2.94957995e-01 3.17647070e-01 3.29411775e-01 1.76470593e-01
      3.03361356e-01 1. 4.99159664e-01 4.54621851e-01 5.71428575e-02
      9.24369786e-03 5.88235306e-03 3.36134457e-03 1.68067229e-03 0. 0.
      0. 0. 0. 0. 0. 0. 0. 0. 0. 0. 0. 0. 0. 0. 0. 0. 0. 0. 0. 0. 0. 0.
      0. 0. 0. 0. 0. 0. 0. 0. 0. 0. 0. 0. 0. 0. 0. 0. 0. 0. 0. 0. 0. 0.
      0. 0. 0. 0. 0. 0. 0. 0. 0. 0. 0. 0. 0. 0. 0. 0. 0. 0. 0. 0. 0. 0.
      0. 0. 0. 0. 0. 0. 0. 0. 0. 0. 0. 0. 0. 0. 0. 0. 0. 0. 0. 0. 0. 0.
      0. 0. 0. 0. 0. 0. 0.</_>
    <_>
      1.05263159e-01 1.05263159e-01 1.05263159e-01 5.26315793e-02
      5.26315793e-02 5.26315793e-02 5.26315793e-02 5.26315793e-02
      5.26315793e-02 0. 0. 0. 0. 0. 0. 5.26315793e-02 1. 6.31578922e-01
      1.05263159e-01 1.05263159e-01 2.63157904e-01 4.73684222e-01
      5.26315808e-01 7.36842096e-01 6.84210539e-01 7.36842096e-01
      4.21052635e-01 6.84210539e-01 7.36842096e-01 6.31578922e-01
      6.84210539e-01 7.36842096e-01 3.15789461e-01 1.05263159e-01
      1.05263159e-01 1.05263159e-01 1.05263159e-01 3.15789461e-01
      4.73684222e-01 6.31578922e-01 7.36842096e-01 6.31578922e-01
      4.73684222e-01 4.73684222e-01 4.73684222e-01 4.73684222e-01
      4.21052635e-01 4.73684222e-01 4.73684222e-01 4.21052635e-01
      2.63157904e-01 1.05263159e-01 1.57894731e-01 1.57894731e-01
      1.57894731e-01 1.57894731e-01 1.05263159e-01 1.05263159e-01
      1.05263159e-01 3.15789461e-01 3.15789461e-01 4.21052635e-01
      4.73684222e-01 4.73684222e-01 5.26315808e-01 5.78947365e-01
      4.73684222e-01 4.73684222e-01 5.78947365e-01 4.73684222e-01
      3.68421048e-01 1.57894731e-01 1.05263159e-01 1.05263159e-01
      1.05263159e-01 5.26315793e-02 1.05263159e-01 1.05263159e-01
      1.05263159e-01 4.73684222e-01 8.94736826e-01 9.47368443e-01
      8.94736826e-01 1.57894731e-01 1.57894731e-01 1.05263159e-01
      1.05263159e-01 1.05263159e-01 1.05263159e-01 1.05263159e-01
      1.05263159e-01 4.21052635e-01 4.73684222e-01 5.26315808e-01
      5.78947365e-01 5.26315808e-01 4.73684222e-01 4.21052635e-01
      4.73684222e-01 4.21052635e-01 5.78947365e-01 5.26315808e-01
      4.21052635e-01 2.10526317e-01 5.26315793e-02 2.10526317e-01
      7.89473712e-01 8.94736826e-01 8.94736826e-01 8.42105269e-01
      3.68421048e-01 3.68421048e-01 3.68421048e-01 2.63157904e-01
      2.10526317e-01 2.10526317e-01 2.10526317e-01 2.63157904e-01
      2.63157904e-01 2.10526317e-01 1.57894731e-01 1.57894731e-01
      6.84210539e-01 7.36842096e-01 7.89473712e-01 4.73684222e-01
      4.73684222e-01 4.21052635e-01 4.73684222e-01 3.68421048e-01
      4.21052635e-01 8.42105269e-01 8.42105269e-01 7.89473712e-01
      6.31578922e-01 1.57894731e-01 7.69230798e-02 1.92307699e-02
      9.61538479e-02 2.69230783e-01 2.69230783e-01 3.26923102e-01
      4.42307711e-01 5.00000000e-01 5.19230783e-01 7.69230783e-01
      7.11538494e-01 6.15384638e-01 6.92307711e-01 7.11538494e-01
      8.07692349e-01 7.88461566e-01 7.11538494e-01 7.50000000e-01
      8.84615421e-01 8.84615421e-01 9.23076987e-01 6.73076928e-01
      8.46153855e-01 1. 6.34615421e-01 5.00000000e-01 5.76923072e-01
      4.61538494e-01 4.03846174e-01 5.38461566e-01 3.46153855e-01
      3.84615399e-02 3.84615399e-02 1.34615391e-01 0. 2.11538464e-01 1.
      0. 0. 0. 0. 0. 3.92156886e-03 0. 0. 0. 4.90196096e-03 0. 0.
      4.90196096e-03 0. 2.15686280e-02 0. 4.90196096e-03 0.
      2.94117676e-03 1.17647070e-02 5.88235352e-03 0. 1.07843140e-02
      3.92156886e-03 2.94117676e-03 4.90196096e-03 0. 0. 0.
      6.76470622e-02 2.94117676e-03 1.07843140e-02 0. 0. 0.
      9.80392215e-04 0. 0. 0. 1.96078443e-03 0. 9.80392215e-04
      1.96078443e-03 9.80392215e-04 3.92156886e-03 0. 7.84313772e-03
      9.80392215e-04 0. 4.90196096e-03 9.80392215e-04 0. 2.94117676e-03
      9.80392215e-04 1.96078443e-03 0. 9.80392215e-04 1.96078443e-03 0.
      2.15686280e-02 0. 0. 0. 0. 1.96078443e-03 1.96078443e-03
      9.80392215e-04 6.86274562e-03 3.92156886e-03 1.07843140e-02
      9.80392192e-03 4.90196096e-03 7.84313772e-03 1.56862754e-02
      7.54901990e-02 3.13725509e-02 3.92156886e-03 2.15686280e-02
      1.94117665e-01 6.47058859e-02 1.37254912e-02 1.47058833e-02
      5.88235352e-03 9.80392192e-03 2.05882359e-02 1.07843140e-02
      4.70588282e-02 2.25490201e-02 8.82352982e-03 5.68627492e-02
      2.25490201e-02 2.35294141e-02 5.58823571e-02 2.05882359e-02
      2.15686280e-02 2.74509825e-02 3.82352956e-02 4.70588282e-02
      4.60784324e-02 7.05882385e-02 8.23529437e-02 9.01960805e-02
      1.38235301e-01 1.83333337e-01 1.87254906e-01 1.54901966e-01
      2.14705899e-01 2.39215702e-01 2.54901975e-01 2.86274523e-01
      2.09803939e-01 1.64705887e-01 1.36274517e-01 5.39215729e-02
      2.25490201e-02 1.17647070e-02 7.84313772e-03 4.90196096e-03 0.
      3.72549035e-02 3.92156886e-03 3.92156886e-03 9.80392215e-04
      3.92156886e-03 0. 0. 0. 5.88235352e-03 2.94117676e-03
      4.90196096e-03 9.80392215e-04 9.80392215e-04 9.80392215e-04 0.
      1.96078443e-03 0. 0. 0. 0. 5.88235352e-03 0. 0. 0. 0.
      1.96078443e-03 0. 0. 0. 0. 4.90196096e-03 0. 0. 0. 0. 0.
      9.80392215e-04 0. 0. 0. 9.80392215e-04 0. 9.80392215e-04
      1.96078443e-03 9.80392215e-04 3.92156886e-03 1.96078443e-03 0.
      1.96078443e-03 0. 9.80392215e-04 0. 0. 0. 0. 0. 0. 0. 0. 0.</_>
    <_>
      3.84615391e-01 1.15384623e-01 7.69230798e-02 0. 0. 3.07692319e-01
      9.61538494e-01 5.00000000e-01 3.84615399e-02 0. 2.30769247e-01
      5.38461566e-01 6.92307711e-01 6.15384638e-01 6.15384638e-01
      6.92307711e-01 4.61538494e-01 5.00000000e-01 7.30769277e-01
      8.07692349e-01 6.92307711e-01 6.15384638e-01 2.69230783e-01
      3.84615399e-02 3.84615399e-02 3.84615399e-02 1.15384623e-01
      2.69230783e-01 3.84615391e-01 4.61538494e-01 5.76923072e-01
      5.38461566e-01 5.00000000e-01 5.38461566e-01 6.53846204e-01
      7.69230783e-01 6.53846204e-01 4.23076928e-01 1.53846160e-01
      3.84615399e-02 3.84615399e-02 3.84615399e-02 0. 0. 1.15384623e-01
      7.69230798e-02 0. 0. 0. 0. 6.15384638e-01 9.61538494e-01
      8.84615421e-01 2.30769247e-01 1.92307696e-01 2.30769247e-01
      1.92307696e-01 1.92307696e-01 1.92307696e-01 2.30769247e-01
      2.30769247e-01 1.53846160e-01 1.92307696e-01 1.15384623e-01
      3.84615399e-02 3.84615399e-02 7.69230798e-02 7.69230783e-01
      8.46153855e-01 6.53846204e-01 3.07692319e-01 3.07692319e-01
      3.84615391e-01 4.23076928e-01 4.23076928e-01 3.84615391e-01
      5.00000000e-01 9.23076987e-01 7.30769277e-01 3.46153855e-01
      3.84615399e-02 3.84615399e-02 3.84615399e-02 3.84615399e-02
      1.53846160e-01 1.53846160e-01 1.53846160e-01 1.53846160e-01
      3.84615391e-01 5.76923072e-01 6.92307711e-01 5.76923072e-01
      4.61538494e-01 4.61538494e-01 3.46153855e-01 2.69230783e-01
      1.53846160e-01 3.84615399e-02 3.84615399e-02 3.84615399e-02
      2.69230783e-01 6.53846204e-01 8.84615421e-01 5.38461566e-01
      4.23076928e-01 3.84615391e-01 3.46153855e-01 4.23076928e-01
      4.23076928e-01 6.53846204e-01 8.46153855e-01 6.15384638e-01
      3.46153855e-01 3.84615399e-02 3.84615399e-02 3.84615399e-02
      3.84615399e-02 3.84615399e-02 3.84615399e-02 3.84615399e-02
      3.84615399e-02 3.84615391e-01 1. 9.61538494e-01 4.61538494e-01
      3.84615399e-02 3.84615399e-02 3.84615399e-02 3.84615399e-02
      3.84615399e-02 3.84615399e-02 2.69230783e-01 5.38461566e-01
      5.38461566e-01 0. 0. 2.04081628e-02 5.10204062e-02 5.10204062e-02
      4.08163257e-02 2.04081628e-02 2.34693870e-01 5.30612230e-01
      6.32653058e-01 4.48979586e-01 3.46938759e-01 3.87755096e-01
      3.87755096e-01 2.75510192e-01 4.08163249e-01 4.18367326e-01
      3.67346942e-01 4.79591817e-01 4.79591817e-01 5.00000000e-01
      3.67346942e-01 2.95918375e-01 3.67346942e-01 4.28571433e-01
      4.08163249e-01 4.08163249e-01 5.00000000e-01 4.59183663e-01
      4.59183663e-01 4.48979586e-01 3.57142836e-01 6.12244904e-02
      4.08163257e-02 4.08163257e-02 3.06122452e-02 2.04081628e-02 1. 0.
      0. 0. 0. 0. 0. 0. 0. 0. 0. 0. 0. 0. 0. 0. 0. 0. 0. 0. 0. 0. 0. 0.
      0. 0. 0. 0. 0. 0. 0. 0. 0. 0. 0. 0. 0. 0. 0. 0. 0. 0. 0.
      1.09289621e-03 2.18579243e-03 0. 5.46448119e-03 0. 1.09289621e-03
      0. 1.09289621e-03 0. 0. 0. 0. 0. 0. 0. 0. 0. 0. 1.09289621e-03 0.
      0. 0. 0. 0. 0. 0. 0. 0. 1.09289621e-03 0. 0. 1.09289621e-03 0. 0.
      1.09289621e-03 1.09289621e-03 1.09289621e-03 1.09289621e-03 0.
      1.09289621e-03 1.09289621e-03 3.27868853e-03 3.27868853e-03
      4.37158486e-03 8.74316972e-03 5.46448119e-03 8.74316972e-03
      1.31147541e-02 1.09289624e-02 2.29508206e-02 4.48087454e-02
      3.82513665e-02 5.13661206e-02 4.59016412e-02 5.90163954e-02
      6.88524619e-02 7.10382536e-02 7.32240453e-02 5.90163954e-02
      1.08196728e-01 1.06010936e-01 9.72677618e-02 1.08196728e-01
      1.32240444e-01 1.46448091e-01 2.19672143e-01 2.33879790e-01
      4.59016412e-01 6.18579268e-01 1. 6.36065602e-01 4.17486340e-01
      2.81967223e-01 9.83606577e-02 2.51366124e-02 1.96721312e-02
      4.37158486e-03 5.46448119e-03 9.83606558e-03 3.27868853e-03
      5.46448119e-03 0. 0. 0. 0. 0. 0. 0. 1.09289621e-03 0. 0. 0. 0. 0.
      0. 0. 0. 0. 0. 0. 0. 0. 0. 0. 0. 0. 0. 0. 0. 0. 0. 0. 0. 0. 0. 0.
      0. 0. 0. 0. 0. 0. 0. 0. 0. 0. 0. 0. 0. 0. 0. 0. 0. 0. 0. 0. 0. 0.</_>
    <_>
      0. 0. 0. 0. 0. 0. 0. 0. 7.41935492e-01 9.67741907e-01
      4.51612890e-01 1.29032254e-01 6.45161271e-02 6.45161271e-02
      1.29032254e-01 1.93548381e-01 3.54838699e-01 5.48387051e-01
      6.12903237e-01 5.48387051e-01 5.80645144e-01 5.48387051e-01
      6.12903237e-01 6.77419305e-01 6.45161271e-01 5.16129017e-01
      3.54838699e-01 1.29032254e-01 9.67741907e-02 9.67741907e-02
      1.93548381e-01 3.22580636e-01 4.51612890e-01 5.48387051e-01
      5.48387051e-01 4.83870953e-01 4.51612890e-01 6.12903237e-01
      7.41935492e-01 5.80645144e-01 3.87096763e-01 1.93548381e-01
      1.29032254e-01 1.29032254e-01 1.29032254e-01 2.25806445e-01
      2.25806445e-01 2.25806445e-01 1.93548381e-01 1.29032254e-01
      1.61290318e-01 2.25806445e-01 3.54838699e-01 3.54838699e-01
      3.87096763e-01 3.87096763e-01 4.19354826e-01 4.83870953e-01
      5.16129017e-01 5.16129017e-01 7.09677398e-01 6.45161271e-01
      5.48387051e-01 2.58064508e-01 1.29032254e-01 1.29032254e-01
      1.29032254e-01 1.93548381e-01 1.93548381e-01 1.93548381e-01
      2.90322572e-01 4.51612890e-01 5.48387051e-01 6.12903237e-01
      5.16129017e-01 4.19354826e-01 3.54838699e-01 3.22580636e-01
      2.90322572e-01 1.29032254e-01 1.61290318e-01 3.54838699e-01
      5.48387051e-01 6.77419305e-01 5.80645144e-01 4.51612890e-01
      3.22580636e-01 3.22580636e-01 3.54838699e-01 4.83870953e-01
      6.77419305e-01 5.80645144e-01 4.51612890e-01 1.29032254e-01
      1.29032254e-01 1.61290318e-01 3.87096763e-01 4.83870953e-01
      5.48387051e-01 4.83870953e-01 4.51612890e-01 4.19354826e-01
      3.87096763e-01 4.19354826e-01 3.87096763e-01 4.19354826e-01
      3.54838699e-01 2.25806445e-01 6.45161271e-02 6.45161271e-02
      1.93548381e-01 6.12903237e-01 7.09677398e-01 6.77419305e-01
      5.16129017e-01 2.58064508e-01 2.90322572e-01 3.54838699e-01
      5.80645144e-01 7.09677398e-01 7.09677398e-01 4.83870953e-01
      3.22580636e-01 1.61290318e-01 1.29032254e-01 7.09677398e-01 1.
      9.67741907e-01 9.35483813e-01 7.09677398e-01 4.19354826e-01
      6.45161271e-02 0. 0. 0. 0. 4.15384620e-01 3.53846163e-01
      4.15384620e-01 4.76923078e-01 1.53846160e-01 3.38461548e-01
      2.61538476e-01 4.46153849e-01 7.38461554e-01 7.84615397e-01
      7.23076940e-01 6.61538482e-01 7.07692325e-01 6.92307711e-01
      8.92307699e-01 9.69230771e-01 1. 9.53846157e-01 8.46153855e-01
      7.84615397e-01 6.00000024e-01 8.46153855e-01 6.46153867e-01
      8.76923084e-01 8.61538470e-01 7.23076940e-01 5.53846180e-01
      3.69230777e-01 5.23076952e-01 6.00000024e-01 6.30769253e-01
      8.76923084e-01 8.92307699e-01 8.30769241e-01 7.84615397e-01
      5.38461566e-01 0. 0. 0. 0. 0. 0. 0. 0. 0. 0. 0. 0. 0. 0. 0. 0. 0.
      0. 0. 0. 0. 0. 0. 0. 0. 0. 0. 0. 0. 0. 0. 0. 0. 0. 0. 0. 0. 0. 0.
      0. 0. 0. 0. 0. 1.83823530e-03 5.51470602e-03 0. 0. 3.67647060e-03
      0. 1.65441185e-02 9.19117685e-03 7.35294120e-03 0. 3.67647060e-03
      3.67647060e-03 3.67647060e-03 0. 3.67647060e-03 0. 7.35294120e-03
      0. 1.83823530e-03 1.83823530e-03 3.67647060e-03 7.35294120e-03
      3.67647060e-03 0. 1.65441185e-02 1.10294120e-02 5.51470602e-03
      1.47058824e-02 1.83823530e-03 1.83823530e-03 3.67647060e-03
      1.83823530e-03 5.51470602e-03 1.47058824e-02 7.35294120e-03
      3.30882370e-02 1.83823537e-02 1.83823537e-02 1.10294120e-02
      1.47058824e-02 4.41176482e-02 1.65441185e-02 2.38970593e-02
      4.41176482e-02 2.57352944e-02 2.02205889e-02 5.51470593e-02
      2.94117648e-02 1.32352948e-01 9.37500000e-02 1.59926474e-01
      6.74632370e-01 2.33455881e-01 1.89338237e-01 2.94117659e-01
      2.42647067e-01 3.49264711e-01 3.62132341e-01 2.79411763e-01
      3.63970578e-01 4.76102948e-01 4.76102948e-01 5.71691155e-01
      8.69485319e-01 1. 8.52941155e-01 4.70588237e-01 1.89338237e-01
      4.96323518e-02 3.12500000e-02 2.38970593e-02 1.10294120e-02
      7.35294120e-03 0. 3.67647060e-03 0. 1.10294120e-02 0.
      1.28676472e-02 3.67647060e-03 7.35294120e-03 7.35294120e-03
      5.51470602e-03 1.83823530e-03 0. 3.67647060e-03 3.67647060e-03
      5.51470602e-03 0. 1.83823530e-03 0. 0. 1.83823530e-03 0. 0. 0.
      1.83823530e-03 0. 0. 0. 0. 0. 0. 0. 0. 0. 0. 0. 0. 0. 0. 0. 0. 0.
      0. 0. 0. 0. 0. 0. 0. 0. 0. 0. 0. 0. 0. 0. 0. 0. 0. 0. 0. 0. 0. 0.</_>
    <_>
      3.03030312e-02 3.03030312e-02 6.06060624e-02 6.06060624e-02
      6.06060624e-02 3.03030312e-02 3.03030312e-02 0. 0. 0. 0.
      4.24242437e-01 4.54545468e-01 4.54545468e-01 6.06060624e-02
      6.06060624e-02 9.09090936e-02 1.81818187e-01 1.51515156e-01
      3.03030312e-01 5.75757623e-01 6.36363626e-01 6.06060624e-01
      6.06060624e-01 5.45454562e-01 5.45454562e-01 5.75757623e-01
      5.75757623e-01 5.75757623e-01 6.06060624e-01 2.42424250e-01
      9.09090936e-02 6.06060624e-02 1.51515156e-01 2.42424250e-01
      3.63636374e-01 4.54545468e-01 4.84848499e-01 5.15151501e-01
      4.54545468e-01 5.15151501e-01 5.45454562e-01 4.84848499e-01
      3.33333343e-01 2.42424250e-01 2.12121218e-01 1.21212125e-01
      1.21212125e-01 1.21212125e-01 1.21212125e-01 1.51515156e-01
      1.51515156e-01 1.81818187e-01 3.03030312e-01 4.24242437e-01
      4.84848499e-01 5.15151501e-01 4.24242437e-01 4.84848499e-01
      4.84848499e-01 4.54545468e-01 4.54545468e-01 5.15151501e-01
      4.84848499e-01 3.93939406e-01 3.03030312e-01 2.12121218e-01
      2.42424250e-01 3.63636374e-01 4.24242437e-01 5.15151501e-01
      6.36363626e-01 6.66666687e-01 6.06060624e-01 6.06060624e-01
      6.96969748e-01 6.66666687e-01 6.06060624e-01 4.24242437e-01
      3.33333343e-01 2.72727281e-01 2.42424250e-01 5.45454562e-01
      6.96969748e-01 7.27272749e-01 7.57575750e-01 4.84848499e-01
      4.84848499e-01 4.84848499e-01 4.84848499e-01 5.45454562e-01
      7.57575750e-01 7.27272749e-01 6.66666687e-01 6.06060624e-01
      3.03030312e-01 2.42424250e-01 5.45454562e-01 6.36363626e-01
      6.96969748e-01 6.66666687e-01 5.75757623e-01 5.75757623e-01
      5.75757623e-01 5.75757623e-01 8.18181872e-01 8.18181872e-01
      7.87878811e-01 6.66666687e-01 3.93939406e-01 3.33333343e-01
      5.45454562e-01 7.27272749e-01 7.87878811e-01 8.18181872e-01
      7.87878811e-01 6.96969748e-01 6.06060624e-01 6.66666687e-01
      8.48484874e-01 8.18181872e-01 8.18181872e-01 8.18181872e-01
      5.45454562e-01 4.54545468e-01 1. 1. 7.87878811e-01 7.27272749e-01
      7.27272749e-01 3.93939406e-01 3.33333343e-01 7.57575750e-01
      7.87878811e-01 8.18181872e-01 8.18181872e-01 1. 9.03508782e-01
      8.50877225e-01 7.54385948e-01 7.45614052e-01 7.45614052e-01
      7.36842096e-01 4.29824561e-01 1.75438598e-01 1.14035085e-01
      4.03508782e-01 4.12280709e-01 3.33333343e-01 4.03508782e-01
      5.26315808e-01 6.14035070e-01 6.40350878e-01 5.96491218e-01
      6.49122834e-01 6.40350878e-01 6.66666687e-01 6.66666687e-01
      6.84210539e-01 6.92982435e-01 6.49122834e-01 6.05263174e-01
      5.00000000e-01 4.73684222e-01 4.56140339e-01 2.71929830e-01
      1.66666672e-01 2.45614037e-01 1.84210524e-01 2.45614037e-01
      7.89473653e-02 3.50877196e-02 2.40000002e-02 0. 0. 0.
      2.66666664e-03 0. 0. 0. 7.99999945e-03 2.66666664e-03
      7.99999945e-03 0. 5.33333328e-03 2.66666664e-03 0. 2.66666664e-03
      0. 2.66666664e-03 2.66666664e-03 2.66666664e-03 5.33333328e-03 0.
      0. 7.99999945e-03 0. 2.66666664e-03 0. 0. 0. 0. 3.99999991e-02 0.
      0. 2.66666664e-03 7.99999945e-03 0. 1.06666666e-02 5.33333328e-03
      1.86666660e-02 2.66666664e-03 2.66666673e-02 2.66666664e-03
      4.53333333e-02 1.33333337e-02 0. 3.19999978e-02 0. 2.66666664e-03
      0. 5.33333328e-03 3.99999991e-02 2.66666664e-03 0. 7.99999945e-03
      5.33333328e-03 1.59999989e-02 0. 0. 2.66666664e-03 2.66666664e-03
      6.66666627e-02 0. 0. 2.66666664e-03 5.33333328e-03 5.33333328e-03
      4.53333333e-02 2.66666664e-03 1.33333337e-02 5.33333328e-03
      2.40000002e-02 1.06666666e-02 2.66666664e-03 5.33333328e-03
      2.66666664e-03 3.99999991e-02 1.06666666e-02 1.33333337e-02
      5.33333328e-03 1.33333337e-02 2.93333326e-02 2.13333331e-02
      7.99999945e-03 3.73333320e-02 2.40000002e-02 2.40000002e-02
      4.53333333e-02 6.39999956e-02 3.19999978e-02 5.06666675e-02
      2.74666667e-01 1.22666664e-01 1.70666665e-01 2.39999995e-01
      2.29333326e-01 3.17333341e-01 2.37333328e-01 2.80000001e-01
      3.57333332e-01 3.49333316e-01 3.81333321e-01 4.45333332e-01
      4.77333337e-01 6.26666665e-01 6.48000002e-01 8.32000017e-01
      7.33333349e-01 7.78666675e-01 8.93333316e-01 1. 7.14666665e-01
      4.16000009e-01 2.82666653e-01 2.74666667e-01 1.11999996e-01
      1.27999991e-01 6.39999956e-02 5.06666675e-02 2.66666673e-02
      7.99999945e-03 2.50666678e-01 0. 0. 1.86666660e-02 1.59999989e-02
      2.66666673e-02 3.73333320e-02 1.33333337e-02 4.53333333e-02
      1.06666666e-02 2.40000002e-02 1.06666666e-02 2.66666664e-03
      2.66666664e-03 0. 1.06666666e-02 2.66666664e-03 0. 7.99999945e-03
      2.66666664e-03 1.06666666e-02 7.99999945e-03 7.99999945e-03
      7.99999945e-03 2.66666664e-03 0. 2.66666664e-03 0. 7.99999945e-03
      0. 1.33333337e-02 0. 0. 7.99999945e-03 0. 0. 0. 0. 2.66666664e-03
      0. 0. 0. 5.33333328e-03 0. 2.66666664e-03 7.99999945e-03 0.
      2.66666664e-03 5.33333328e-03 0. 5.33333328e-03 0. 0.
      7.99999945e-03 5.33333328e-03 2.66666664e-03 0. 0. 0. 0.</_>
    <_>
      1.15384623e-01 1.15384623e-01 1.15384623e-01 3.07692319e-01
      5.76923072e-01 7.30769277e-01 8.07692349e-01 8.46153855e-01
      8.84615421e-01 7.69230783e-01 5.76923072e-01 5.00000000e-01
      4.61538494e-01 4.61538494e-01 4.61538494e-01 6.15384638e-01
      7.69230783e-01 8.84615421e-01 8.84615421e-01 8.46153855e-01
      7.69230783e-01 4.61538494e-01 2.30769247e-01 1.15384623e-01
      1.15384623e-01 1.53846160e-01 1.53846160e-01 1.53846160e-01
      2.69230783e-01 3.84615391e-01 4.23076928e-01 4.61538494e-01
      5.00000000e-01 4.23076928e-01 4.61538494e-01 5.00000000e-01
      5.38461566e-01 6.15384638e-01 6.53846204e-01 6.15384638e-01
      6.92307711e-01 7.69230783e-01 8.46153855e-01 8.46153855e-01
      6.92307711e-01 6.53846204e-01 3.46153855e-01 1.15384623e-01
      1.53846160e-01 1.53846160e-01 1.53846160e-01 1.53846160e-01
      1.53846160e-01 4.61538494e-01 8.07692349e-01 8.46153855e-01
      9.23076987e-01 9.23076987e-01 8.07692349e-01 4.61538494e-01
      4.23076928e-01 3.84615391e-01 3.84615391e-01 3.84615391e-01
      3.84615391e-01 3.84615391e-01 4.61538494e-01 5.76923072e-01
      6.15384638e-01 5.76923072e-01 5.76923072e-01 5.00000000e-01
      4.23076928e-01 3.07692319e-01 1.53846160e-01 1.53846160e-01
      1.92307696e-01 2.30769247e-01 3.46153855e-01 4.23076928e-01
      4.23076928e-01 4.23076928e-01 3.84615391e-01 3.84615391e-01
      3.07692319e-01 3.46153855e-01 4.61538494e-01 6.92307711e-01
      7.69230783e-01 7.69230783e-01 9.61538494e-01 9.23076987e-01
      5.76923072e-01 5.00000000e-01 4.61538494e-01 4.23076928e-01
      3.07692319e-01 2.69230783e-01 1.53846160e-01 1.53846160e-01
      1.53846160e-01 1.53846160e-01 1.53846160e-01 3.46153855e-01
      5.76923072e-01 7.30769277e-01 7.69230783e-01 7.69230783e-01
      7.69230783e-01 5.76923072e-01 5.00000000e-01 5.00000000e-01
      5.00000000e-01 5.00000000e-01 5.38461566e-01 5.76923072e-01
      5.76923072e-01 5.76923072e-01 6.53846204e-01 7.30769277e-01
      7.30769277e-01 6.15384638e-01 5.38461566e-01 1.53846160e-01
      1.53846160e-01 1.53846160e-01 1.92307696e-01 2.30769247e-01
      5.38461566e-01 9.23076987e-01 1. 1. 1. 1. 1. 1. 1. 1. 1.
      6.76470578e-01 1.32352948e-01 1.02941178e-01 9.55882370e-02
      3.01470578e-01 6.39705896e-01 6.83823526e-01 6.69117630e-01
      4.85294133e-01 4.04411763e-01 3.67647052e-01 3.38235289e-01
      3.30882341e-01 4.41176474e-01 4.33823526e-01 3.38235289e-01
      2.86764711e-01 2.72058815e-01 2.72058815e-01 3.30882341e-01
      3.89705896e-01 4.55882341e-01 5.07352948e-01 5.58823526e-01
      4.41176474e-01 1.76470593e-01 4.41176482e-02 0. 0. 0.
      4.41176482e-02 0. 0. 0. 0. 0. 0. 0. 0. 0. 0. 0. 0. 0. 0. 0. 0. 0.
      0. 0. 0. 0. 0. 0. 0. 0. 0. 0. 0. 0. 0. 0. 0. 0. 0. 0. 0. 0. 0. 0.
      0. 0. 0. 0. 0. 0. 0. 0. 0. 0. 0. 0. 0. 0. 0. 0. 0. 0. 0. 0. 0. 0.
      0. 0. 0. 0. 0. 0. 0. 1.32075474e-02 0. 0. 5.66037744e-03 0.
